{"learner":{"attributes":{"scikit_learn":"{\"_estimator_type\": \"classifier\"}"},"feature_names":["mc_sentiment","close","ma_5","ma_10","volatility"],"feature_types":["float","float","float","float","float"],"gradient_booster":{"model":{"gbtree_model_param":{"num_parallel_tree":"1","num_trees":"100"},"iteration_indptr":[0,1,2,3,4,5,6,7,8,9,10,11,12,13,14,15,16,17,18,19,20,21,22,23,24,25,26,27,28,29,30,31,32,33,34,35,36,37,38,39,40,41,42,43,44,45,46,47,48,49,50,51,52,53,54,55,56,57,58,59,60,61,62,63,64,65,66,67,68,69,70,71,72,73,74,75,76,77,78,79,80,81,82,83,84,85,86,87,88,89,90,91,92,93,94,95,96,97,98,99,100],"tree_info":[0,0,0,0,0,0,0,0,0,0,0,0,0,0,0,0,0,0,0,0,0,0,0,0,0,0,0,0,0,0,0,0,0,0,0,0,0,0,0,0,0,0,0,0,0,0,0,0,0,0,0,0,0,0,0,0,0,0,0,0,0,0,0,0,0,0,0,0,0,0,0,0,0,0,0,0,0,0,0,0,0,0,0,0,0,0,0,0,0,0,0,0,0,0,0,0,0,0,0,0],"trees":[{"base_weights":[-1.1285838E-7,3.4614128E-1,-3.6187626E-2,4.5653427E-1,-1.6774152E-1,-6.211968E-2,3.577394E-1,3.4247154E-1,9.372056E-1,2.1260665E-1,-9.4887394E-1,5.5418164E-1,-7.4581906E-2,5.1885045E-1,-2.0245548E-2,-4.9304926E-1,3.9246523E-1,3.298096E-1,2.5696284E-1,-2.1432246E-1,6.232468E-1,-5.277488E-2,-3.7291843E-1,-6.0754484E-1,1.1902761E0,-2.1448875E-2,-1.6162604E-1,-9.696344E-2,6.980565E-1,-7.506361E-1,4.6298927E-1,1.6701043E-3,-2.38333E-1,4.4084212E-1,-3.4585175E-1,-1.1833145E-1,2.4167322E-1,1.21671654E-1,-4.6868768E-1,-1.1833145E-1,1.00744E0,-7.9259104E-1,1.6701043E-3,4.259935E-1,2.923461E-1,-3.3935506E-2,7.581327E-1,-6.7554873E-1,-9.038893E-2,4.907662E-1,-4.1346374E-1,4.088836E-1,4.4366658E-1,-1.0401262E0,1.8556742E-3,6.7500633E-1,-1.98456E-1,7.2954945E-2,1.826945E-1,1.6701043E-3,-1.6186728E-1,1.21671654E-1,-2.779632E-1,4.1731787E-1,5.6317527E-2,-6.512108E-2,-2.779632E-1,-6.512108E-2,2.015488E-1,-1.8465407E-2,4.244932E-2,-1.1833145E-1,3.2543808E-1,-9.215055E-2,-2.5983787E-1,1.7800055E-3,-6.362944E-2,3.6167476E-1,2.8386852E-2,-1.6944298E-1,1.782611E-1,-4.1346374E-1,-9.814576E-2,5.6823842E-2,3.1654453E-1],"categories":[],"categories_nodes":[],"categories_segments":[],"categories_sizes":[],"default_left":[0,0,0,0,0,0,0,0,0,0,0,0,0,0,0,0,0,0,0,0,0,0,0,0,0,0,0,0,0,0,0,0,0,0,0,0,0,0,0,0,0,0,0,0,0,0,0,0,0,0,0,0,0,0,0,0,0,0,0,0,0,0,0,0,0,0,0,0,0,0,0,0,0,0,0,0,0,0,0,0,0,0,0,0,0],"id":0,"left_children":[1,3,5,7,9,11,13,15,17,19,21,23,25,27,29,31,33,-1,35,37,39,-1,-1,41,43,45,47,49,51,53,55,-1,-1,57,59,-1,-1,-1,61,-1,63,65,-1,-1,67,69,71,73,75,77,-1,-1,79,81,-1,83,-1,-1,-1,-1,-1,-1,-1,-1,-1,-1,-1,-1,-1,-1,-1,-1,-1,-1,-1,-1,-1,-1,-1,-1,-1,-1,-1,-1,-1],"loss_changes":[1.2175008E1,5.2955427E0,9.011526E0,3.8457737E0,5.252374E0,6.3891172E0,3.329352E0,2.825007E0,1.2617846E0,2.2811327E0,1.08882E0,1.2915871E1,3.747262E0,4.2887745E0,6.4358034E0,6.055328E-1,2.2954693E0,0E0,1.7471995E0,1.2544047E0,2.9387457E0,0E0,0E0,7.418499E-1,1.853652E0,4.939034E0,1.1187235E1,7.8300095E0,4.427149E0,1.5948243E0,3.0690453E0,0E0,0E0,1.7379112E0,2.9230452E-1,0E0,0E0,0E0,2.477242E0,0E0,1.3111296E0,1.8433166E-1,0E0,0E0,8.2242596E-1,2.420126E0,3.4398265E0,2.3490334E0,3.1782067E0,1.9388669E0,0E0,0E0,3.8272414E0,8.145871E-1,0E0,1.5999026E0,0E0,0E0,0E0,0E0,0E0,0E0,0E0,0E0,0E0,0E0,0E0,0E0,0E0,0E0,0E0,0E0,0E0,0E0,0E0,0E0,0E0,0E0,0E0,0E0,0E0,0E0,0E0,0E0,0E0],"parents":[2147483647,0,0,1,1,2,2,3,3,4,4,5,5,6,6,7,7,8,8,9,9,10,10,11,11,12,12,13,13,14,14,15,15,16,16,18,18,19,19,20,20,23,23,24,24,25,25,26,26,27,27,28,28,29,29,30,30,33,33,34,34,38,38,40,40,41,41,44,44,45,45,46,46,47,47,48,48,49,49,52,52,53,53,55,55],"right_children":[2,4,6,8,10,12,14,16,18,20,22,24,26,28,30,32,34,-1,36,38,40,-1,-1,42,44,46,48,50,52,54,56,-1,-1,58,60,-1,-1,-1,62,-1,64,66,-1,-1,68,70,72,74,76,78,-1,-1,80,82,-1,84,-1,-1,-1,-1,-1,-1,-1,-1,-1,-1,-1,-1,-1,-1,-1,-1,-1,-1,-1,-1,-1,-1,-1,-1,-1,-1,-1,-1,-1],"split_conditions":[5.4684267E-3,1.6561E3,2.3875767E-2,5.151983E-3,4.8621697E-3,2.3531184E2,1.4893517E3,2.437568E2,1.4216527E3,4.1195964E-3,1.8811747E3,9.873106E-3,1.4544847E3,2.716648E2,1.6040784E3,2.3531184E2,5.078364E-3,3.298096E-1,1.494008E3,1.8283899E3,1.8266694E3,-5.277488E-2,-3.7291843E-1,2.2920761E2,1.714059E-2,1.4495667E3,1.50226E3,2.514448E2,7.761833E2,3.5853464E-2,3.9245723E3,1.6701043E-3,-2.38333E-1,4.1195964E-3,1.0684E3,-1.1833145E-1,2.4167322E-1,1.21671654E-1,3.0787576E-3,-1.1833145E-1,4.671606E-3,2.1607085E2,1.6701043E-3,4.259935E-1,2.2971002E2,1.714059E-2,1.439843E3,1.4632593E3,1.8679731E3,2.3193637E2,-4.1346374E-1,4.088836E-1,8.0259424E2,1.5740026E3,1.8556742E-3,2.781863E-2,-1.98456E-1,7.2954945E-2,1.826945E-1,1.6701043E-3,-1.6186728E-1,1.21671654E-1,-2.779632E-1,4.1731787E-1,5.6317527E-2,-6.512108E-2,-2.779632E-1,-6.512108E-2,2.015488E-1,-1.8465407E-2,4.244932E-2,-1.1833145E-1,3.2543808E-1,-9.215055E-2,-2.5983787E-1,1.7800055E-3,-6.362944E-2,3.6167476E-1,2.8386852E-2,-1.6944298E-1,1.782611E-1,-4.1346374E-1,-9.814576E-2,5.6823842E-2,3.1654453E-1],"split_indices":[4,1,4,4,4,3,1,1,1,4,1,4,1,2,3,3,4,0,1,1,3,0,0,1,4,1,2,2,1,4,2,0,0,4,1,0,0,0,4,0,4,1,0,0,2,4,2,2,1,1,0,0,2,2,0,4,0,0,0,0,0,0,0,0,0,0,0,0,0,0,0,0,0,0,0,0,0,0,0,0,0,0,0,0,0],"split_type":[0,0,0,0,0,0,0,0,0,0,0,0,0,0,0,0,0,0,0,0,0,0,0,0,0,0,0,0,0,0,0,0,0,0,0,0,0,0,0,0,0,0,0,0,0,0,0,0,0,0,0,0,0,0,0,0,0,0,0,0,0,0,0,0,0,0,0,0,0,0,0,0,0,0,0,0,0,0,0,0,0,0,0,0,0],"sum_hessian":[9.699792E2,9.099805E1,8.7898114E2,7.499839E1,1.5999657E1,8.254823E2,5.349885E1,6.199867E1,1.2999722E1,1.1249759E1,4.749898E0,1.5499667E1,8.099826E2,3.72492E1,1.6249651E1,2.9999356E0,5.8998734E1,9.999785E0,2.9999356E0,5.7498765E0,5.4998817E0,1.7499624E0,2.9999356E0,5.4998817E0,9.999785E0,5.037392E2,3.0624344E2,8.499818E0,2.8749384E1,6.249866E0,9.999785E0,1.4999678E0,1.4999678E0,5.5748802E1,3.2499304E0,1.4999678E0,1.4999678E0,1.4999678E0,4.249909E0,1.4999678E0,3.9999142E0,3.9999142E0,1.4999678E0,7.499839E0,2.4999464E0,4.9673935E2,6.99985E0,3.624922E1,2.699942E2,6.249866E0,2.2499518E0,6.749855E0,2.1999527E1,4.249909E0,1.9999571E0,8.749812E0,1.2499732E0,2.6749426E1,2.8999378E1,1.4999678E0,1.7499624E0,1.4999678E0,2.7499409E0,2.2499518E0,1.7499624E0,1.2499732E0,2.7499409E0,1.2499732E0,1.2499732E0,4.2974078E2,6.6998566E1,1.4999678E0,5.4998817E0,1.3249716E1,2.2999506E1,1.5124675E2,1.1874745E2,1.4999678E0,4.749898E0,2.4999464E0,1.9499582E1,2.2499518E0,1.9999571E0,4.4999037E0,4.249909E0],"tree_param":{"num_deleted":"0","num_feature":"5","num_nodes":"85","size_leaf_vector":"1"}},{"base_weights":[3.892085E-4,2.4712437E-1,-2.5232164E-2,3.2658088E-1,-1.2599476E-1,-4.422554E-2,2.4672866E-1,2.3870781E-1,7.0444924E-1,1.7796783E-1,-7.5488853E-1,-3.6024716E-2,-8.253425E-1,4.2383882E-1,-7.481844E-2,2.8125724E-1,-3.7615934E-1,2.4624884E-1,2.1242014E-1,-1.6583158E-1,3.5461932E-1,-4.2728927E-2,-2.9800487E-1,4.170781E-1,-4.7482695E-2,4.8221856E-2,-1.1051426E0,2.6400802E-1,3.6478096E-1,-4.1028714E-1,3.706075E-1,8.379359E-2,4.2430797E-1,-1.2949896E-1,-3.8367175E-2,-9.7298436E-2,1.9996165E-1,-3.1414184E-1,8.167594E-1,-1.15378454E-1,7.7204645E-1,-6.8199694E-2,1.04686245E-1,-3.6983916E-1,-1.1865133E-1,3.825914E-1,-3.9201587E-1,-7.05274E-2,-1.0651543E0,5.7240224E-1,-1.6649237E-1,6.8580344E-2,-1.856454E-1,2.1877022E-1,4.9015578E-2,9.997953E-2,-2.0728794E-1,3.103154E-1,4.558291E-2,-1.8953754E-1,1.2546487E-1,3.6145535E-1,4.6815693E-2,-1.7813157E-2,-2.4761668E-1,9.5084675E-2,-4.4026513E-2,1.4117193E-2,1.631657E-1,-1.7205393E-1,1.643524E-1,-7.672919E-2,-3.940895E-1,3.2360762E-1,9.2842676E-2],"categories":[],"categories_nodes":[],"categories_segments":[],"categories_sizes":[],"default_left":[0,0,0,0,0,0,0,0,0,0,0,0,0,0,0,0,0,0,0,0,0,0,0,0,0,0,0,0,0,0,0,0,0,0,0,0,0,0,0,0,0,0,0,0,0,0,0,0,0,0,0,0,0,0,0,0,0,0,0,0,0,0,0,0,0,0,0,0,0,0,0,0,0,0,0],"id":1,"left_children":[1,3,5,7,9,11,13,15,17,19,21,23,25,27,29,31,33,-1,35,-1,37,-1,-1,39,41,-1,43,45,-1,47,49,51,53,-1,-1,-1,-1,55,57,59,61,63,65,-1,-1,67,-1,69,71,73,-1,-1,-1,-1,-1,-1,-1,-1,-1,-1,-1,-1,-1,-1,-1,-1,-1,-1,-1,-1,-1,-1,-1,-1,-1],"loss_changes":[6.126596E0,2.7440267E0,4.54609E0,2.3368435E0,3.3320339E0,5.232738E0,3.3043773E0,1.7467043E0,6.1135626E-1,1.7562146E0,6.8242574E-1,4.245939E0,2.5200033E0,4.3893013E0,3.3289402E0,1.6376243E0,6.627679E-3,0E0,1.18479E0,0E0,3.4530811E0,0E0,0E0,3.9030983E0,2.5128818E0,0E0,1.23007774E-1,6.5043316E0,0E0,2.728723E0,2.1217215E0,2.8000243E0,2.594171E0,0E0,0E0,0E0,0E0,1.4375317E0,7.679086E-1,2.7281663E0,3.0746198E0,4.6285796E0,5.151045E0,0E0,0E0,1.6384192E0,0E0,3.227906E0,5.154953E-1,7.8731203E-1,0E0,0E0,0E0,0E0,0E0,0E0,0E0,0E0,0E0,0E0,0E0,0E0,0E0,0E0,0E0,0E0,0E0,0E0,0E0,0E0,0E0,0E0,0E0,0E0,0E0],"parents":[2147483647,0,0,1,1,2,2,3,3,4,4,5,5,6,6,7,7,8,8,9,9,10,10,11,11,12,12,13,13,14,14,15,15,16,16,18,18,20,20,23,23,24,24,26,26,27,27,29,29,30,30,31,31,32,32,37,37,38,38,39,39,40,40,41,41,42,42,45,45,47,47,48,48,49,49],"right_children":[2,4,6,8,10,12,14,16,18,20,22,24,26,28,30,32,34,-1,36,-1,38,-1,-1,40,42,-1,44,46,-1,48,50,52,54,-1,-1,-1,-1,56,58,60,62,64,66,-1,-1,68,-1,70,72,74,-1,-1,-1,-1,-1,-1,-1,-1,-1,-1,-1,-1,-1,-1,-1,-1,-1,-1,-1,-1,-1,-1,-1,-1,-1],"split_conditions":[5.4684267E-3,1.6561E3,2.3443E-2,5.151983E-3,4.8621697E-3,2.2342814E-2,1.4273E3,5.078364E-3,1.4216527E3,1.7723859E3,1.8811747E3,2.3756075E2,9.507685E2,1.2946603E3,1.6542166E3,1.0747386E3,1.1933801E3,2.4624884E-1,1.494008E3,-1.6583158E-1,3.857074E-3,-4.2728927E-2,-2.9800487E-1,9.873106E-3,1.714059E-2,4.8221856E-2,1.6561E3,1.2324468E3,3.6478096E-1,1.5943486E3,3.9245723E3,9.977E2,1.39083E3,-1.2949896E-1,-3.8367175E-2,-9.7298436E-2,1.9996165E-1,3.0787576E-3,4.671606E-3,2.2920761E2,1.5767181E-2,1.6882386E-2,1.9482998E-2,-3.6983916E-1,-1.1865133E-1,2.7871735E2,-3.9201587E-1,1.4926296E3,1.5937456E3,1.7420863E3,-1.6649237E-1,6.8580344E-2,-1.856454E-1,2.1877022E-1,4.9015578E-2,9.997953E-2,-2.0728794E-1,3.103154E-1,4.558291E-2,-1.8953754E-1,1.2546487E-1,3.6145535E-1,4.6815693E-2,-1.7813157E-2,-2.4761668E-1,9.5084675E-2,-4.4026513E-2,1.4117193E-2,1.631657E-1,-1.7205393E-1,1.643524E-1,-7.672919E-2,-3.940895E-1,3.2360762E-1,9.2842676E-2],"split_indices":[4,1,4,4,4,4,1,4,1,1,1,1,2,1,2,3,1,0,1,0,4,0,0,4,4,0,1,1,0,2,2,1,3,0,0,0,0,4,4,1,4,4,4,0,0,3,0,2,1,1,0,0,0,0,0,0,0,0,0,0,0,0,0,0,0,0,0,0,0,0,0,0,0,0,0],"split_type":[0,0,0,0,0,0,0,0,0,0,0,0,0,0,0,0,0,0,0,0,0,0,0,0,0,0,0,0,0,0,0,0,0,0,0,0,0,0,0,0,0,0,0,0,0,0,0,0,0,0,0,0,0,0,0,0,0,0,0,0,0,0,0,0,0,0,0,0,0,0,0,0,0,0,0],"sum_hessian":[9.67152E2,9.016952E1,8.769825E2,7.444173E1,1.5727794E1,8.205161E2,5.6466354E1,6.1720406E1,1.2721322E1,1.108642E1,4.6413736E0,8.1302637E2,7.4897175E0,3.6205833E1,2.0260525E1,5.823318E1,3.4872222E0,9.747484E0,2.973838E0,1.7438035E0,9.342616E0,1.7483165E0,2.893057E0,1.917945E1,7.938469E2,1.7495188E0,5.7401986E0,3.1236235E1,4.969598E0,1.1601695E1,8.658829E0,2.513005E1,3.310313E1,2.2463312E0,1.2408911E0,1.49391E0,1.4799281E0,3.9487052E0,5.393911E0,7.941727E0,1.1237721E1,6.992056E2,9.464135E1,4.2402196E0,1.499979E0,2.9746891E1,1.4893426E0,8.367926E0,3.2337697E0,7.422218E0,1.2366109E0,2.1395168E1,3.7348826E0,1.4436803E1,1.8666328E1,1.4952729E0,2.4534323E0,3.6448786E0,1.7490324E0,3.942319E0,3.9994085E0,6.038826E0,5.1988955E0,6.922185E2,6.9870744E0,5.117756E1,4.3463787E1,1.0076627E1,1.9670265E1,4.6544776E0,3.713448E0,1.2362221E0,1.9975475E0,1.476481E0,5.945737E0],"tree_param":{"num_deleted":"0","num_feature":"5","num_nodes":"75","size_leaf_vector":"1"}},{"base_weights":[1.5487205E-4,4.338826E-2,-7.937756E-2,3.6360253E-2,9.565763E-1,-7.8445655E-1,-4.4434577E-2,2.2341375E-1,8.615253E-3,1.0423643E-1,3.8175926E-1,-2.359788E-2,-8.5172063E-1,-1.8576911E-1,1.6972412E-3,5.228426E-1,1.3889782E-1,-1.14155084E-1,7.158191E-2,-1.0314128E0,-3.8759714E-1,-4.9403675E-2,-5.067769E-1,1.3442366E-1,-1.1212454E-1,1.2793036E-1,2.777107E-1,-4.419531E-2,2.870443E-1,-3.4265976E-2,-3.0395862E-1,3.741002E-1,2.514762E-3,-3.9545003E-1,-6.459818E-1,-3.41572E-1,3.1340158E-1,6.2139803E-1,-1.7359506E-1,-1.1569569E0,-2.718448E-1,5.817656E-1,9.765648E-2,-1.0030974E0,-6.5927945E-2,-5.6316074E-2,2.3233826E-1,2.133771E-2,-2.0279329E-1,3.2535192E-1,6.6235185E-2,-2.601474E-2,2.5195596E-1,-3.367184E-1,-6.6393435E-2,1.3426046E-1,-1.5877372E-1,2.1030256E-1,-7.2524413E-3,1.0876187E-1,-3.6114192E-1,1.694361E-1,-3.168012E-2,-1.855016E-1,2.9894987E-1,-1.5193836E-1,-1.9070935E-3,-1.0238382E-1,-4.4384277E-1,-4.870275E-3,-3.2347322E-1,2.968286E-1,-8.65686E-2,-3.0171126E-1,3.924629E-2,-3.7286647E-2,-3.902636E-1,-4.8277076E-2,7.946901E-2],"categories":[],"categories_nodes":[],"categories_segments":[],"categories_sizes":[],"default_left":[0,0,0,0,0,0,0,0,0,0,0,0,0,0,0,0,0,0,0,0,0,0,0,0,0,0,0,0,0,0,0,0,0,0,0,0,0,0,0,0,0,0,0,0,0,0,0,0,0,0,0,0,0,0,0,0,0,0,0,0,0,0,0,0,0,0,0,0,0,0,0,0,0,0,0,0,0,0,0],"id":2,"left_children":[1,3,5,7,9,11,13,15,17,-1,-1,-1,19,21,23,25,27,29,31,33,35,37,39,41,43,45,-1,47,49,51,53,55,57,-1,59,-1,61,63,65,67,69,71,73,75,77,-1,-1,-1,-1,-1,-1,-1,-1,-1,-1,-1,-1,-1,-1,-1,-1,-1,-1,-1,-1,-1,-1,-1,-1,-1,-1,-1,-1,-1,-1,-1,-1,-1,-1],"loss_changes":[3.3186438E0,3.978085E0,8.3392315E0,3.2236733E0,4.6928596E-1,6.920891E-1,2.118682E0,1.9579964E0,4.200277E0,0E0,0E0,0E0,8.0920506E-1,3.4752088E0,3.7305388E0,2.634112E0,1.747024E0,2.7830396E0,7.5012884E0,2.3695374E-1,3.3301296E0,4.8754735E0,3.3105545E0,1.8181391E0,5.405859E0,2.1651773E0,0E0,2.194725E0,1.6351233E0,6.068786E0,3.4343219E0,4.6636667E0,5.485309E0,0E0,3.9031875E0,0E0,4.4993111E-1,4.875106E0,2.7284212E0,1.0714226E0,3.8453155E0,3.2857285E0,4.030122E0,1.5348673E0,4.048353E0,0E0,0E0,0E0,0E0,0E0,0E0,0E0,0E0,0E0,0E0,0E0,0E0,0E0,0E0,0E0,0E0,0E0,0E0,0E0,0E0,0E0,0E0,0E0,0E0,0E0,0E0,0E0,0E0,0E0,0E0,0E0,0E0,0E0,0E0],"parents":[2147483647,0,0,1,1,2,2,3,3,4,4,5,5,6,6,7,7,8,8,12,12,13,13,14,14,15,15,16,16,17,17,18,18,19,19,20,20,21,21,22,22,23,23,24,24,25,25,27,27,28,28,29,29,30,30,31,31,32,32,34,34,36,36,37,37,38,38,39,39,40,40,41,41,42,42,43,43,44,44],"right_children":[2,4,6,8,10,12,14,16,18,-1,-1,-1,20,22,24,26,28,30,32,34,36,38,40,42,44,46,-1,48,50,52,54,56,58,-1,60,-1,62,64,66,68,70,72,74,76,78,-1,-1,-1,-1,-1,-1,-1,-1,-1,-1,-1,-1,-1,-1,-1,-1,-1,-1,-1,-1,-1,-1,-1,-1,-1,-1,-1,-1,-1,-1,-1,-1,-1,-1],"split_conditions":[1.4632593E3,1.4607388E3,1.477836E3,5.9829163E-3,1.2318489E-2,4.203585E-3,1.5834723E3,8.138986E2,9.536404E-3,1.0423643E-1,3.8175926E-1,-2.359788E-2,1.4768E3,1.5498079E3,1.8679731E3,7.869484E2,1.1996793E3,1.24768E3,1.1040416E-2,9.837609E-3,1.4530607E3,6.318013E-3,1.5466285E3,1.5943486E3,1.8649092E3,5.151983E-3,2.777107E-1,1.1447217E3,1.2164603E3,1.2252878E3,1.2557347E3,1.4376536E3,2.3531184E2,-3.9545003E-1,1.3245556E-2,-3.41572E-1,1.5058877E-2,4.0501677E-3,1.0178823E-2,1.55464E3,1.5870034E3,1.5937456E3,1.5831947E3,1.185888E-2,1.4310109E-2,-5.6316074E-2,2.3233826E-1,2.133771E-2,-2.0279329E-1,3.2535192E-1,6.6235185E-2,-2.601474E-2,2.5195596E-1,-3.367184E-1,-6.6393435E-2,1.3426046E-1,-1.5877372E-1,2.1030256E-1,-7.2524413E-3,1.0876187E-1,-3.6114192E-1,1.694361E-1,-3.168012E-2,-1.855016E-1,2.9894987E-1,-1.5193836E-1,-1.9070935E-3,-1.0238382E-1,-4.4384277E-1,-4.870275E-3,-3.2347322E-1,2.968286E-1,-8.65686E-2,-3.0171126E-1,3.924629E-2,-3.7286647E-2,-3.902636E-1,-4.8277076E-2,7.946901E-2],"split_indices":[2,2,2,4,4,4,2,1,4,0,0,0,1,2,1,3,1,2,4,4,3,4,1,2,3,4,0,1,1,3,1,1,3,0,4,0,4,4,4,2,1,1,3,4,4,0,0,0,0,0,0,0,0,0,0,0,0,0,0,0,0,0,0,0,0,0,0,0,0,0,0,0,0,0,0,0,0,0,0],"split_type":[0,0,0,0,0,0,0,0,0,0,0,0,0,0,0,0,0,0,0,0,0,0,0,0,0,0,0,0,0,0,0,0,0,0,0,0,0,0,0,0,0,0,0,0,0,0,0,0,0,0,0,0,0,0,0,0,0,0,0,0,0,0,0,0,0,0,0,0,0,0,0,0,0,0,0,0,0,0,0],"sum_hessian":[9.631535E2,6.242624E2,3.388911E2,6.2052655E2,3.7358315E0,1.4989221E1,3.239019E2,7.924097E1,5.412856E2,1.9930924E0,1.742739E0,1.4929729E0,1.3496247E1,7.8961075E1,2.4494083E2,1.6301298E1,6.293967E1,1.8322551E2,3.580601E2,8.84824E0,4.6480074E0,5.6228767E1,2.2732311E1,1.12996155E2,1.3194467E2,8.897187E0,7.40411E0,2.8463509E1,3.4476162E1,1.2978078E2,5.344474E1,6.573227E1,2.9232782E2,3.6859653E0,5.162275E0,1.9426458E0,2.7053618E0,8.158463E0,4.8070305E1,4.992051E0,1.774026E1,7.456071E0,1.05540085E2,5.482993E0,1.2646168E2,6.455243E0,2.441944E0,2.4820393E1,3.643116E0,1.4659299E0,3.301023E1,1.2328414E2,6.4966288E0,3.7480552E0,4.9696686E1,6.125715E1,4.4751244E0,9.828941E0,2.824989E2,1.9631224E0,3.1991522E0,1.473427E0,1.2319347E0,1.7444557E0,6.4140067E0,1.5396713E1,3.267359E1,1.9977479E0,2.9943035E0,1.4245033E1,3.4952266E0,4.9844837E0,2.4715872E0,2.2240088E0,1.0331608E2,1.7464042E0,3.7365887E0,9.864852E1,2.7813156E1],"tree_param":{"num_deleted":"0","num_feature":"5","num_nodes":"79","size_leaf_vector":"1"}},{"base_weights":[-1.0608889E-3,-5.1990817E-3,2.3348697E-1,1.9602247E-1,-1.696484E-2,-1.1602063E-2,5.596661E-1,1.9938126E-2,-8.014081E-2,-3.207022E-1,1.4799972E-1,1.0301952E0,3.0430412E-1,4.308579E-3,4.195681E-1,-6.037865E-1,-4.5463294E-2,2.2332025E-1,-7.9254115E-1,4.3841067E-1,-2.8446272E-1,6.2034693E-2,3.569698E-1,-5.01804E-1,5.621543E-1,-2.5629029E-2,1.2541412E-1,-4.27337E-1,7.332804E-1,-2.0475636E-1,-9.8461914E-1,-6.214175E-1,-3.4233294E-2,-1.7386203E-1,2.1416421E-1,-9.735984E-2,-4.0555313E-1,5.4802004E-2,2.2030066E-1,-2.8036833E-1,2.6034255E-2,-2.6638734E-1,-2.580825E-4,2.3451869E-1,-2.895918E-2,-3.2365893E-3,-2.4939352E-1,1.9205563E-2,1.4640948E-1,1.5474977E-1,-2.6434833E-1,3.0753288E-1,7.527588E-2,-1.0898645E-1,1.5458848E-1,-3.2541412E-1,-3.992494E-2,-3.1492776E-1,-7.482903E-2,-2.6038088E-2,2.5056021E-2],"categories":[],"categories_nodes":[],"categories_segments":[],"categories_sizes":[],"default_left":[0,0,0,0,0,0,0,0,0,0,0,0,0,0,0,0,0,0,0,0,0,0,0,0,0,0,0,0,0,0,0,0,0,0,0,0,0,0,0,0,0,0,0,0,0,0,0,0,0,0,0,0,0,0,0,0,0,0,0,0,0],"id":3,"left_children":[1,3,-1,5,7,9,11,13,15,17,19,21,23,25,27,29,31,33,35,37,39,-1,-1,41,43,45,47,49,51,53,55,57,59,-1,-1,-1,-1,-1,-1,-1,-1,-1,-1,-1,-1,-1,-1,-1,-1,-1,-1,-1,-1,-1,-1,-1,-1,-1,-1,-1,-1],"loss_changes":[3.1014004E0,2.2674124E0,0E0,4.0010977E0,2.1101036E0,1.7572631E0,1.9994187E0,3.5691438E0,6.031886E0,3.2874665E0,3.0812416E0,5.8932495E-1,3.1706166E0,2.0016763E0,6.0276604E0,2.9355197E0,2.0099475E0,2.9376984E0,1.3174567E0,9.614544E-1,2.509968E0,0E0,0E0,7.5293267E-1,1.6664779E0,5.285258E0,2.4048316E0,3.2133436E0,2.003851E0,1.4820905E0,7.335768E-1,6.8587255E-1,1.9202887E0,0E0,0E0,0E0,0E0,0E0,0E0,0E0,0E0,0E0,0E0,0E0,0E0,0E0,0E0,0E0,0E0,0E0,0E0,0E0,0E0,0E0,0E0,0E0,0E0,0E0,0E0,0E0,0E0],"parents":[2147483647,0,0,1,1,3,3,4,4,5,5,6,6,7,7,8,8,9,9,10,10,11,11,12,12,13,13,14,14,15,15,16,16,17,17,18,18,19,19,20,20,23,23,24,24,25,25,26,26,27,27,28,28,29,29,30,30,31,31,32,32],"right_children":[2,4,-1,6,8,10,12,14,16,18,20,22,24,26,28,30,32,34,36,38,40,-1,-1,42,44,46,48,50,52,54,56,58,60,-1,-1,-1,-1,-1,-1,-1,-1,-1,-1,-1,-1,-1,-1,-1,-1,-1,-1,-1,-1,-1,-1,-1,-1,-1,-1,-1,-1],"split_conditions":[4.5652628E-2,4.671606E-3,2.3348697E-1,4.1195964E-3,1.4544847E3,1.0104864E3,1.00335E3,1.439843E3,1.4768E3,8.06805E2,1.4666945E3,7.0881726E2,1.24328E3,1.663944E-2,1.4273E3,1.4548282E3,1.4530607E3,2.5891544E2,3.3595047E-3,3.3595047E-3,1.5641737E3,6.2034693E-2,3.569698E-1,4.3574492E-3,4.5883786E-3,1.6293792E-2,1.3028865E3,1.4639769E3,1.455661E3,1.4530607E3,1.8903637E-2,1.44976E3,1.4236835E-2,-1.7386203E-1,2.1416421E-1,-9.735984E-2,-4.0555313E-1,5.4802004E-2,2.2030066E-1,-2.8036833E-1,2.6034255E-2,-2.6638734E-1,-2.580825E-4,2.3451869E-1,-2.895918E-2,-3.2365893E-3,-2.4939352E-1,1.9205563E-2,1.4640948E-1,1.5474977E-1,-2.6434833E-1,3.0753288E-1,7.527588E-2,-1.0898645E-1,1.5458848E-1,-3.2541412E-1,-3.992494E-2,-3.1492776E-1,-7.482903E-2,-2.6038088E-2,2.5056021E-2],"split_indices":[4,4,0,4,1,1,2,2,1,3,1,1,3,4,1,3,3,1,4,4,1,0,0,4,4,4,1,3,2,3,4,2,4,0,0,0,0,0,0,0,0,0,0,0,0,0,0,0,0,0,0,0,0,0,0,0,0,0,0,0,0],"split_type":[0,0,0,0,0,0,0,0,0,0,0,0,0,0,0,0,0,0,0,0,0,0,0,0,0,0,0,0,0,0,0,0,0,0,0,0,0,0,0,0,0,0,0,0,0,0,0,0,0,0,0,0,0,0,0,0,0,0,0,0,0],"sum_hessian":[9.5938904E2,9.553099E2,4.0791707E0,5.1907734E1,9.0340216E2,3.365838E1,1.824936E1,5.707149E2,3.3268723E2,1.1117592E1,2.2540785E1,5.3525376E0,1.2896821E1,5.502071E2,2.0507845E1,1.9643919E1,3.130433E2,5.4084463E0,5.7091455E0,1.3476903E1,9.063882E0,1.2422823E0,4.1102552E0,2.8962543E0,1.00005665E1,4.4178503E2,1.0842204E2,5.445325E0,1.5062519E1,1.0343657E1,9.3002615E0,4.9478307E0,3.0809546E2,1.982487E0,3.425959E0,3.9685895E0,1.7405561E0,8.096891E0,5.380012E0,2.7430484E0,6.3208337E0,1.199244E0,1.6970103E0,7.3602138E0,2.6403525E0,4.3478973E2,6.995287E0,9.37291E1,1.469294E1,1.7245684E0,3.7207568E0,8.683684E0,6.378835E0,8.883311E0,1.4603462E0,8.07701E0,1.2232513E0,1.452851E0,3.4949794E0,2.1319624E2,9.489923E1],"tree_param":{"num_deleted":"0","num_feature":"5","num_nodes":"61","size_leaf_vector":"1"}},{"base_weights":[-1.0734105E-3,-4.250792E-3,6.21989E-1,3.4179032E-1,-9.7525045E-3,2.754611E-1,2.6372826E-1,-1.7965455E-1,8.344975E-1,9.174997E-2,-2.623736E-2,1.4583303E-1,-2.5084453E-2,2.8348693E-1,-6.147474E-1,5.789149E-2,3.028956E-1,3.6396575E-1,5.040605E-2,-5.8131063E-1,-1.5173722E-2,1.9165708E-1,-1.165615E-1,-3.868739E-3,-2.679788E-1,-1.0709633E-2,8.177938E-1,-4.042536E-1,7.427912E-2,2.1262734E-1,-7.409251E-1,5.554697E-1,-1.8573195E-2,5.862402E-2,-1.8202414E-1,6.8725064E-2,3.2386303E-1,1.2441609E-2,-2.360417E-1,2.9447666E-1,1.6580593E-2,-2.589813E-1,9.446618E-2,-1.8768354E-1,3.4736317E-1,-4.215888E-2,-6.2103296E-4],"categories":[],"categories_nodes":[],"categories_segments":[],"categories_sizes":[],"default_left":[0,0,0,0,0,0,0,0,0,0,0,0,0,0,0,0,0,0,0,0,0,0,0,0,0,0,0,0,0,0,0,0,0,0,0,0,0,0,0,0,0,0,0,0,0,0,0],"id":4,"left_children":[1,3,5,7,9,11,-1,13,15,17,19,-1,-1,21,23,-1,-1,25,27,29,31,-1,-1,-1,-1,33,35,37,39,-1,41,43,45,-1,-1,-1,-1,-1,-1,-1,-1,-1,-1,-1,-1,-1,-1],"loss_changes":[1.8971663E0,1.8178799E0,1.9103837E-1,3.989349E0,1.5738684E0,3.0744743E-1,0E0,1.8031064E0,6.8846655E-1,1.460939E0,4.9576635E0,0E0,0E0,1.3467264E0,7.4000776E-1,0E0,0E0,2.9283211E0,1.28118E0,3.773952E0,1.5504853E0,0E0,0E0,0E0,0E0,1.395331E0,9.5120525E-1,1.0396489E0,1.8493507E0,0E0,2.1486487E0,4.092657E0,1.5901374E0,0E0,0E0,0E0,0E0,0E0,0E0,0E0,0E0,0E0,0E0,0E0,0E0,0E0,0E0],"parents":[2147483647,0,0,1,1,2,2,3,3,4,4,5,5,7,7,8,8,9,9,10,10,13,13,14,14,17,17,18,18,19,19,20,20,25,25,26,26,27,27,28,28,30,30,31,31,32,32],"right_children":[2,4,6,8,10,12,-1,14,16,18,20,-1,-1,22,24,-1,-1,26,28,30,32,-1,-1,-1,-1,34,36,38,40,-1,42,44,46,-1,-1,-1,-1,-1,-1,-1,-1,-1,-1,-1,-1,-1,-1],"split_conditions":[4.5652628E-2,2.3193637E2,1.1752356E3,2.238794E2,6.269321E-3,1.095218E3,2.6372826E-1,2.155084E2,9.045895E-3,8.138986E2,6.4490056E-3,1.4583303E-1,-2.5084453E-2,1.6882386E-2,2.1492488E2,5.789149E-2,3.028956E-1,5.004204E-3,8.458763E2,2.5291708E2,6.494391E-3,1.9165708E-1,-1.165615E-1,-3.868739E-3,-2.679788E-1,4.671606E-3,7.1690137E2,5.311486E-3,9.1912616E2,2.1262734E-1,1.9284E3,1.2087623E3,7.684965E-3,5.862402E-2,-1.8202414E-1,6.8725064E-2,3.2386303E-1,1.2441609E-2,-2.360417E-1,2.9447666E-1,1.6580593E-2,-2.589813E-1,9.446618E-2,-1.8768354E-1,3.4736317E-1,-4.215888E-2,-6.2103296E-4],"split_indices":[4,1,2,2,4,1,0,2,4,1,4,0,0,4,3,0,0,4,2,1,4,0,0,0,0,4,3,4,1,0,1,3,4,0,0,0,0,0,0,0,0,0,0,0,0,0,0],"split_type":[0,0,0,0,0,0,0,0,0,0,0,0,0,0,0,0,0,0,0,0,0,0,0,0,0,0,0,0,0,0,0,0,0,0,0,0,0,0,0,0,0,0,0,0,0,0,0],"sum_hessian":[9.559711E2,9.5210895E2,3.8622158E0,1.3944078E1,9.3816486E2,2.5273E0,1.3349158E0,7.0831594E0,6.8609195E0,1.3043982E2,8.0772504E2,1.3698865E0,1.1574135E0,3.5997708E0,3.4833884E0,1.9222288E0,4.9386907E0,1.6170038E1,1.1426978E2,1.4777574E1,7.9294745E2,2.3869154E0,1.2128556E0,1.4330252E0,2.0503633E0,9.392279E0,6.7777586E0,4.905809E0,1.09363976E2,1.2482529E0,1.3529321E1,3.7340994E0,7.892134E2,7.4782715E0,1.914007E0,2.6631575E0,4.114601E0,2.677613E0,2.228196E0,1.2052889E0,1.0815868E2,1.2287793E1,1.241527E0,1.2482529E0,2.4858465E0,9.317115E1,6.960422E2],"tree_param":{"num_deleted":"0","num_feature":"5","num_nodes":"47","size_leaf_vector":"1"}},{"base_weights":[4.7908764E-4,-2.1694214E-3,5.3803545E-1,7.797117E-2,-1.9597888E-2,2.317902E-1,2.3273508E-1,3.2589253E-2,1.087224E0,-2.5929195E-1,-3.3835748E-3,1.2867875E-1,-2.6486265E-2,5.7923764E-2,-1.0041059E0,4.2170796E-1,-7.7295765E-2,-4.9976874E-2,-7.202081E-1,6.232018E-1,-1.0915806E-2,1.9777672E-2,4.4709995E-1,-3.9576983E-1,-5.1437657E-2,-2.4796787E-1,5.3267545E-1,-8.943337E-1,7.649167E-4,2.1924089E-1,2.7524626E-1,4.9948934E-3,-1.597427E-1,-4.9678115E-3,1.133319E-1,2.647137E-1,-1.0883776E-2,-1.5535425E-1,2.8417958E-2,3.289911E-1,1.3064088E-2,-9.441833E-2,-3.4469333E-1,6.539419E-2,-7.960943E-2,1.4274372E-1,-4.9119107E-2,-4.1974364E-3,1.5143043E-1,-8.306266E-2,6.784519E-2],"categories":[],"categories_nodes":[],"categories_segments":[],"categories_sizes":[],"default_left":[0,0,0,0,0,0,0,0,0,0,0,0,0,0,0,0,0,0,0,0,0,0,0,0,0,0,0,0,0,0,0,0,0,0,0,0,0,0,0,0,0,0,0,0,0,0,0,0,0,0,0],"id":5,"left_children":[1,3,5,7,9,11,-1,13,15,17,19,-1,-1,21,23,-1,-1,25,27,29,31,33,35,-1,-1,37,39,41,43,45,-1,47,49,-1,-1,-1,-1,-1,-1,-1,-1,-1,-1,-1,-1,-1,-1,-1,-1,-1,-1],"loss_changes":[1.3609085E0,1.3303382E0,1.6139948E-1,7.7573786E0,3.039247E0,2.5709522E-1,0E0,4.3615823E0,3.4846983E0,4.744317E0,3.4694827E0,0E0,0E0,2.3796322E0,8.137038E-1,0E0,0E0,4.1868935E0,1.933958E0,8.369217E-1,1.7198061E0,1.9259502E0,3.044135E0,0E0,0E0,2.5384884E0,2.4989908E0,1.4692497E0,2.8877866E-1,5.686382E-1,0E0,6.239415E0,3.2331867E0,0E0,0E0,0E0,0E0,0E0,0E0,0E0,0E0,0E0,0E0,0E0,0E0,0E0,0E0,0E0,0E0,0E0,0E0],"parents":[2147483647,0,0,1,1,2,2,3,3,4,4,5,5,7,7,8,8,9,9,10,10,13,13,14,14,17,17,18,18,19,19,20,20,21,21,22,22,25,25,26,26,27,27,28,28,29,29,31,31,32,32],"right_children":[2,4,6,8,10,12,-1,14,16,18,20,-1,-1,22,24,-1,-1,26,28,30,32,34,36,-1,-1,38,40,42,44,46,-1,48,50,-1,-1,-1,-1,-1,-1,-1,-1,-1,-1,-1,-1,-1,-1,-1,-1,-1,-1],"split_conditions":[4.5652628E-2,8.10427E2,1.1752356E3,8.0729E2,8.6272E2,1.0988386E3,2.3273508E-1,8.0923E2,1.2747883E-2,8.412236E2,8.8702264E2,1.2867875E-1,-2.6486265E-2,7.944822E2,1.5058877E-2,4.2170796E-1,-7.7295765E-2,8.352302E2,1.4236835E-2,8.785891E2,1.9655377E-2,2.5214532E-2,7.9963E2,-3.9576983E-1,-5.1437657E-2,9.986069E-3,8.3295953E2,8.756425E-3,1.5849447E-2,1.1750707E-2,2.7524626E-1,1.8125102E-2,1.6623636E3,-4.9678115E-3,1.133319E-1,2.647137E-1,-1.0883776E-2,-1.5535425E-1,2.8417958E-2,3.289911E-1,1.3064088E-2,-9.441833E-2,-3.4469333E-1,6.539419E-2,-7.960943E-2,1.4274372E-1,-4.9119107E-2,-4.1974364E-3,1.5143043E-1,-8.306266E-2,6.784519E-2],"split_indices":[4,1,2,2,3,3,0,3,4,3,3,0,0,3,4,0,0,2,4,2,4,4,2,0,0,4,3,4,4,4,0,4,2,0,0,0,0,0,0,0,0,0,0,0,0,0,0,0,0,0,0],"split_type":[0,0,0,0,0,0,0,0,0,0,0,0,0,0,0,0,0,0,0,0,0,0,0,0,0,0,0,0,0,0,0,0,0,0,0,0,0,0,0,0,0,0,0,0,0,0,0,0,0,0,0],"sum_hessian":[9.540603E2,9.5037384E2,3.6864724E0,1.6914189E2,7.8123193E2,2.4742768E0,1.2121955E0,1.6285144E2,6.290463E0,4.8548866E1,7.3268304E2,1.3207415E0,1.1535354E0,1.5988824E2,2.9631844E0,5.0495095E0,1.2409533E0,3.4149185E1,1.4399682E1,7.7321124E0,7.249509E2,1.465724E2,1.33158455E1,1.7256892E0,1.2374952E0,2.5916813E1,8.232373E0,1.14048E1,2.9948812E0,3.9942575E0,3.7378547E0,6.5580676E2,6.914417E1,1.3393187E2,1.2640535E1,6.5721974E0,6.743648E0,1.4212803E1,1.170401E1,3.2468069E0,4.9855666E0,4.163664E0,7.241137E0,1.748596E0,1.2462852E0,2.2466748E0,1.7475827E0,6.32741E2,2.306578E1,5.326024E1,1.5883936E1],"tree_param":{"num_deleted":"0","num_feature":"5","num_nodes":"51","size_leaf_vector":"1"}},{"base_weights":[1.3571983E-3,3.3237994E-2,-4.0889077E-2,-3.8780815E-3,2.2713757E-1,-6.2959474E-1,-2.2505047E-2,2.054319E-2,-3.923364E-1,1.0059923E0,1.3179566E-1,-3.978682E-1,-3.6787096E-1,6.480922E-1,-3.690244E-2,3.3818614E-2,-4.660826E-1,-7.275978E-2,-9.3465894E-1,-1.5065295E-1,4.6296516E-1,-4.240763E-1,1.9543722E-1,-6.955566E-1,7.402201E-2,1.8205819E-1,2.5092736E-1,5.1812047E-1,-5.037788E-2,1.08259255E-2,2.5173816E-1,-9.5428056E-1,5.442704E-3,-3.0829075E-1,7.9377323E-1,-3.568096E-1,-1.1015663E-2,2.1575746E-1,-2.9654706E-1,3.443446E-1,1.4473209E-1,-2.8084955E-1,-2.2110434E-1,2.0025183E-1,-3.0785248E-1,1.1276473E-1,-3.4489468E-2,7.8282654E-1,1.2711377E-1,-3.7060067E-1,-1.6186269E-2,7.729178E-3,-2.0039019E-1,-1.4176485E-1,1.1513554E-1,-4.06618E-1,3.0632466E-2,1.9023252E-1,-8.331853E-2,9.37486E-3,-2.3663534E-1,7.496739E-2,3.4317046E-1,1.05234675E-1,-4.250923E-3,7.697646E-2,-1.806187E-1,-2.2148578E-1,9.064098E-2,3.055249E-2,3.133774E-1,-1.0438628E-1,2.6737088E-1,-4.2129457E-2,-2.0218745E-1,-5.5347443E-2,1.8677494E-2],"categories":[],"categories_nodes":[],"categories_segments":[],"categories_sizes":[],"default_left":[0,0,0,0,0,0,0,0,0,0,0,0,0,0,0,0,0,0,0,0,0,0,0,0,0,0,0,0,0,0,0,0,0,0,0,0,0,0,0,0,0,0,0,0,0,0,0,0,0,0,0,0,0,0,0,0,0,0,0,0,0,0,0,0,0,0,0,0,0,0,0,0,0,0,0,0,0],"id":6,"left_children":[1,3,5,7,9,11,13,15,17,19,21,23,-1,25,27,29,31,33,35,37,-1,-1,39,41,43,45,-1,47,49,51,53,55,57,59,61,-1,-1,-1,-1,-1,63,-1,65,-1,67,-1,-1,69,71,73,75,-1,-1,-1,-1,-1,-1,-1,-1,-1,-1,-1,-1,-1,-1,-1,-1,-1,-1,-1,-1,-1,-1,-1,-1,-1,-1],"loss_changes":[1.2850772E0,3.9141827E0,4.4272127E0,4.347035E0,6.3559813E0,1.2251263E0,3.8760424E0,2.8018644E0,4.6293125E0,6.060417E0,8.045993E0,1.5130442E0,0E0,5.8847785E-1,2.954526E0,2.1054842E0,2.6572115E0,3.9466183E0,2.2354069E0,3.5427616E0,0E0,0E0,3.5403664E0,5.322809E-1,1.3224505E0,2.5664183E-1,0E0,8.702626E-1,4.1893477E0,3.8869848E0,4.017652E0,2.5392165E0,1.3963841E0,2.468906E0,5.0560427E-1,0E0,0E0,0E0,0E0,0E0,2.428467E0,0E0,7.892794E-1,0E0,1.1901224E0,0E0,0E0,8.5501623E-1,2.1165528E0,2.4832726E0,4.596146E0,0E0,0E0,0E0,0E0,0E0,0E0,0E0,0E0,0E0,0E0,0E0,0E0,0E0,0E0,0E0,0E0,0E0,0E0,0E0,0E0,0E0,0E0,0E0,0E0,0E0,0E0],"parents":[2147483647,0,0,1,1,2,2,3,3,4,4,5,5,6,6,7,7,8,8,9,9,10,10,11,11,13,13,14,14,15,15,16,16,17,17,18,18,19,19,22,22,23,23,24,24,25,25,27,27,28,28,29,29,30,30,31,31,32,32,33,33,34,34,40,40,42,42,44,44,47,47,48,48,49,49,50,50],"right_children":[2,4,6,8,10,12,14,16,18,20,22,24,-1,26,28,30,32,34,36,38,-1,-1,40,42,44,46,-1,48,50,52,54,56,58,60,62,-1,-1,-1,-1,-1,64,-1,66,-1,68,-1,-1,70,72,74,76,-1,-1,-1,-1,-1,-1,-1,-1,-1,-1,-1,-1,-1,-1,-1,-1,-1,-1,-1,-1,-1,-1,-1,-1,-1,-1],"split_conditions":[1.1795458E-2,1.0501642E-2,1.1954071E-2,1.0130866E-2,7.3709283E2,1.8811747E3,1.2108818E-2,3.9166665E3,1.5401405E3,2.4376166E2,8.02575E2,1.4177804E3,-3.6787096E-1,1.2661201E3,2.3531184E2,2.0502E3,4.0469065E3,1.3776E3,2.044E3,1.1040416E-2,4.6296516E-1,-4.240763E-1,8.3116064E2,1.1913814E-2,1.446E3,7.383738E2,2.5092736E-1,1.714059E-2,2.716648E2,1.9072997E3,5.775712E-3,8.587869E-3,4.115025E3,1.1118499E3,1.4926296E3,-3.568096E-1,-1.1015663E-2,2.1575746E-1,-2.9654706E-1,3.443446E-1,1.1040416E-2,-2.8084955E-1,8.0596655E2,2.0025183E-1,1.5333658E3,1.1276473E-1,-3.4489468E-2,1.3636345E-2,2.3439702E2,2.5124683E2,1.4310109E-2,7.729178E-3,-2.0039019E-1,-1.4176485E-1,1.1513554E-1,-4.06618E-1,3.0632466E-2,1.9023252E-1,-8.331853E-2,9.37486E-3,-2.3663534E-1,7.496739E-2,3.4317046E-1,1.05234675E-1,-4.250923E-3,7.697646E-2,-1.806187E-1,-2.2148578E-1,9.064098E-2,3.055249E-2,3.133774E-1,-1.0438628E-1,2.6737088E-1,-4.2129457E-2,-2.0218745E-1,-5.5347443E-2,1.8677494E-2],"split_indices":[4,4,4,4,3,1,4,1,2,2,3,1,0,1,3,2,3,1,1,4,0,0,1,4,1,1,0,4,2,3,4,4,1,1,2,0,0,0,0,0,4,0,1,0,1,0,0,4,1,1,4,0,0,0,0,0,0,0,0,0,0,0,0,0,0,0,0,0,0,0,0,0,0,0,0,0,0],"split_type":[0,0,0,0,0,0,0,0,0,0,0,0,0,0,0,0,0,0,0,0,0,0,0,0,0,0,0,0,0,0,0,0,0,0,0,0,0,0,0,0,0,0,0,0,0,0,0,0,0,0,0,0,0,0,0,0,0,0,0,0,0,0,0,0,0,0,0,0,0,0,0,0,0,0,0,0,0],"sum_hessian":[9.521299E2,5.427565E2,4.0937338E2,4.563772E2,8.6379295E1,1.1389952E1,3.9798343E2,4.302742E2,2.6103E1,8.379025E0,7.8000275E1,9.404307E0,1.9856437E0,7.4398093E0,3.905436E2,4.1975357E2,1.052061E1,1.7138115E1,8.964885E0,2.8856947E0,5.49333E0,2.2461512E0,7.575412E1,5.4758987E0,3.9284089E0,2.7072706E0,4.7325387E0,8.3695965E0,3.82174E2,3.8064175E2,3.9111828E1,4.6659064E0,5.854704E0,1.3981934E1,3.1561823E0,6.731035E0,2.2338493E0,1.4852817E0,1.4004132E0,2.7355797E0,7.301854E1,2.9876332E0,2.4882658E0,1.2452114E0,2.6831975E0,1.4775726E0,1.2296981E0,4.393308E0,3.9762886E0,3.5920483E1,3.4625354E2,3.7338678E2,7.2549677E0,5.633423E0,3.3478405E1,3.1766734E0,1.4892328E0,1.4333113E0,4.4213924E0,8.740461E0,5.2414727E0,1.9072356E0,1.2489467E0,3.126685E1,4.175169E1,1.2488136E0,1.239452E0,1.449819E0,1.2333786E0,1.605537E0,2.7877712E0,2.787739E0,1.1885495E0,2.1255802E1,1.4664681E1,1.09648186E2,2.3660535E2],"tree_param":{"num_deleted":"0","num_feature":"5","num_nodes":"77","size_leaf_vector":"1"}},{"base_weights":[4.9132586E-4,2.598551E-2,-4.637877E-2,1.9718109E-2,8.4428555E-1,-5.508517E-1,-2.2837784E-2,2.5229663E-2,-3.8325378E-1,1.0688684E-1,3.2154208E-1,-1.8010546E-2,-6.004503E-1,7.86582E-2,-8.211951E-2,1.4217881E-2,4.7093663E-1,6.199665E-2,-3.67331E-1,-7.2294277E-1,-2.887095E-1,-2.999021E-2,4.5514074E-1,-3.5980195E-1,-2.6156645E-2,1.8632185E-2,-5.2974766E-1,9.878469E-1,-1.01547986E-1,-4.0615433E-1,3.3389091E-1,-3.9832613E-1,-2.8427485E-1,-2.7929634E-1,2.5950128E-1,9.246836E-2,-3.1463555E-1,3.2054067E-1,3.2748246E-1,-8.162986E-2,-5.429736E-1,-1.6449153E-1,4.7605954E-2,4.0313224E-3,1.6019216E-1,-3.0837658E-1,-1.3362903E-3,9.465138E-3,4.0477562E-1,1.542284E-1,-1.2835415E-1,1.8968327E-1,-2.6573673E-1,-1.94658E-2,-2.0609917E-1,1.4097054E-1,-2.7690763E-2,1.4529654E-1,-3.525496E-2,-2.1265513E-1,1.43954875E-2,1.46272E-1,-1.5340285E-1,4.960445E-2,-3.016237E-1,1.1244143E-2,-1.9880937E-1,-2.1354709E-2,-2.3575456E-1,9.622588E-2,-2.9222507E-2],"categories":[],"categories_nodes":[],"categories_segments":[],"categories_sizes":[],"default_left":[0,0,0,0,0,0,0,0,0,0,0,0,0,0,0,0,0,0,0,0,0,0,0,0,0,0,0,0,0,0,0,0,0,0,0,0,0,0,0,0,0,0,0,0,0,0,0,0,0,0,0,0,0,0,0,0,0,0,0,0,0,0,0,0,0,0,0,0,0,0,0],"id":7,"left_children":[1,3,5,7,9,11,13,15,17,-1,-1,-1,19,21,23,25,27,29,-1,31,33,35,37,39,41,43,45,47,49,51,-1,53,-1,-1,55,57,59,61,-1,63,65,67,69,-1,-1,-1,-1,-1,-1,-1,-1,-1,-1,-1,-1,-1,-1,-1,-1,-1,-1,-1,-1,-1,-1,-1,-1,-1,-1,-1,-1],"loss_changes":[1.1370561E0,3.1442313E0,3.9687595E0,1.3703915E0,1.3559604E-1,3.2675886E-1,1.9399459E0,2.964297E0,3.1951442E0,0E0,0E0,0E0,3.0390835E-1,4.881114E0,3.1506019E0,1.4308444E0,4.4100933E0,3.5997162E0,0E0,2.7686357E-1,2.1611905E0,3.280742E0,1.938468E0,1.6895933E0,1.7457538E0,1.5667745E0,1.2508821E0,2.6347413E0,1.7903073E0,3.1294167E0,0E0,4.7471398E-1,0E0,0E0,3.1897128E-1,5.4873767E0,4.077731E0,3.5097792E0,0E0,3.5173702E0,1.4384618E0,3.3913002E0,4.462099E0,0E0,0E0,0E0,0E0,0E0,0E0,0E0,0E0,0E0,0E0,0E0,0E0,0E0,0E0,0E0,0E0,0E0,0E0,0E0,0E0,0E0,0E0,0E0,0E0,0E0,0E0,0E0,0E0],"parents":[2147483647,0,0,1,1,2,2,3,3,4,4,5,5,6,6,7,7,8,8,12,12,13,13,14,14,15,15,16,16,17,17,19,19,20,20,21,21,22,22,23,23,24,24,25,25,26,26,27,27,28,28,29,29,31,31,34,34,35,35,36,36,37,37,39,39,40,40,41,41,42,42],"right_children":[2,4,6,8,10,12,14,16,18,-1,-1,-1,20,22,24,26,28,30,-1,32,34,36,38,40,42,44,46,48,50,52,-1,54,-1,-1,56,58,60,62,-1,64,66,68,70,-1,-1,-1,-1,-1,-1,-1,-1,-1,-1,-1,-1,-1,-1,-1,-1,-1,-1,-1,-1,-1,-1,-1,-1,-1,-1,-1,-1],"split_conditions":[1.4632593E3,1.4607388E3,1.477836E3,1.455661E3,1.2318489E-2,4.203585E-3,9.3941875E-3,1.450665E3,1.4639769E3,1.0688684E-1,3.2154208E-1,-1.8010546E-2,1.4768E3,8.442699E-3,1.0647384E-2,1.4666945E3,1.2460122E-2,1.2023708E-2,-3.67331E-1,1.459324E3,1.4530607E3,7.4841795E-3,9.237838E-3,9.873106E-3,1.6407699E3,1.4426941E3,1.4808823E-2,9.426433E-3,1.4099243E3,6.8726153E-3,3.3389091E-1,1.3245556E-2,-2.8427485E-1,-2.7929634E-1,1.5058877E-2,1.62789E3,7.915062E-3,9.1104945E-3,3.2748246E-1,3.65315E3,1.5401405E3,1.6268923E3,1.819474E3,4.0313224E-3,1.6019216E-1,-3.0837658E-1,-1.3362903E-3,9.465138E-3,4.0477562E-1,1.542284E-1,-1.2835415E-1,1.8968327E-1,-2.6573673E-1,-1.94658E-2,-2.0609917E-1,1.4097054E-1,-2.7690763E-2,1.4529654E-1,-3.525496E-2,-2.1265513E-1,1.43954875E-2,1.46272E-1,-1.5340285E-1,4.960445E-2,-3.016237E-1,1.1244143E-2,-1.9880937E-1,-2.1354709E-2,-2.3575456E-1,9.622588E-2,-2.9222507E-2],"split_indices":[2,2,2,2,4,4,4,3,3,0,0,0,1,4,4,1,4,4,0,1,3,4,4,4,2,2,4,4,1,4,0,4,0,0,4,3,4,4,0,1,2,1,1,0,0,0,0,0,0,0,0,0,0,0,0,0,0,0,0,0,0,0,0,0,0,0,0,0,0,0,0],"split_type":[0,0,0,0,0,0,0,0,0,0,0,0,0,0,0,0,0,0,0,0,0,0,0,0,0,0,0,0,0,0,0,0,0,0,0,0,0,0,0,0,0,0,0,0,0,0,0,0,0,0,0,0,0,0,0,0,0,0,0,0,0,0,0,0,0,0,0,0,0,0,0],"sum_hessian":[9.495707E2,6.1532227E2,3.342484E2,6.116616E2,3.66065E0,1.390347E1,3.2034494E2,6.043334E2,7.3282366E0,1.9799472E0,1.6807028E0,1.4789108E0,1.242456E1,1.179966E2,2.0234833E2,5.9076953E2,1.3563845E1,5.3975387E0,1.9306982E0,7.9727645E0,4.4517946E0,9.2284676E1,2.5711926E1,3.3029545E1,1.6931879E2,5.86972E2,3.7975547E0,6.746617E0,6.817228E0,4.1586375E0,1.2389011E0,4.394973E0,3.577792E0,1.728487E0,2.7233078E0,6.4997116E1,2.728756E1,2.2464714E1,3.2472105E0,1.3688008E1,1.9341536E1,5.8457386E1,1.108614E2,5.8213043E2,4.841572E0,1.4579862E0,2.3395684E0,2.148603E0,4.598014E0,2.162193E0,4.6550345E0,1.2133751E0,2.9452624E0,2.6076665E0,1.7873063E0,1.4940691E0,1.2292386E0,2.2222038E1,4.2775074E1,1.2616745E1,1.46708145E1,1.9052986E1,3.4117281E0,1.1448265E1,2.239743E0,3.424693E0,1.5916843E1,5.1794037E1,6.6633506E0,3.80254E1,7.2836E1],"tree_param":{"num_deleted":"0","num_feature":"5","num_nodes":"71","size_leaf_vector":"1"}},{"base_weights":[-3.0741587E-4,-2.46891E-3,4.5558E-1,2.4886455E-1,-6.2888637E-3,1.9249551E-1,1.7882723E-2,-3.1708155E-2,2.837201E-1,2.2675525E-2,-4.5136802E-2,-5.411196E-1,3.9733475E-1,-5.848547E-3,1.7114763E-1,-5.175905E-1,-3.0321183E-2,2.74128E-2,-2.3362884E-1,1.1335775E-1,2.1907574E-1,2.276715E-3,-8.198572E-1,8.4811586E-1,9.4522275E-2,-3.27208E-1,-3.0505833E-1,-4.421748E-2,4.5284024E-1,1.249269E-1,-1.3065363E-1,4.4931315E-2,-5.845288E-3,-3.83598E-1,-1.5077206E-2,-1.6235722E-2,3.6230806E-1,-3.4612688E-1,4.3540534E-2,-1.355533E-1,9.749243E-2,-9.396665E-3,-1.5984862E-1,2.4416848E-1,-1.6794789E-1],"categories":[],"categories_nodes":[],"categories_segments":[],"categories_sizes":[],"default_left":[0,0,0,0,0,0,0,0,0,0,0,0,0,0,0,0,0,0,0,0,0,0,0,0,0,0,0,0,0,0,0,0,0,0,0,0,0,0,0,0,0,0,0,0,0],"id":8,"left_children":[1,3,5,7,9,-1,-1,11,-1,13,15,17,19,21,23,25,27,-1,-1,29,-1,31,33,35,37,39,-1,41,43,-1,-1,-1,-1,-1,-1,-1,-1,-1,-1,-1,-1,-1,-1,-1,-1],"loss_changes":[9.345328E-1,9.0765643E-1,2.9148972E-1,2.797399E0,1.0481526E0,0E0,0E0,2.6319737E0,0E0,2.2616105E0,2.768939E0,8.9472735E-1,5.392481E-1,2.9697943E0,4.383835E0,8.1110764E-1,2.6169796E0,0E0,0E0,9.689047E-1,0E0,1.4321461E0,1.5026469E0,2.8634434E0,5.122678E0,9.748293E-1,0E0,2.357982E0,4.441876E0,0E0,0E0,0E0,0E0,0E0,0E0,0E0,0E0,0E0,0E0,0E0,0E0,0E0,0E0,0E0,0E0],"parents":[2147483647,0,0,1,1,2,2,3,3,4,4,7,7,9,9,10,10,11,11,12,12,13,13,14,14,15,15,16,16,19,19,21,21,22,22,23,23,24,24,25,25,27,27,28,28],"right_children":[2,4,6,8,10,-1,-1,12,-1,14,16,18,20,22,24,26,28,-1,-1,30,-1,32,34,36,38,40,-1,42,44,-1,-1,-1,-1,-1,-1,-1,-1,-1,-1,-1,-1,-1,-1,-1,-1],"split_conditions":[4.5652628E-2,2.3193637E2,1.171199E3,2.2920761E2,1.1795458E-2,1.9249551E-1,1.7882723E-2,9.873106E-3,2.837201E-1,1.0501642E-2,1.1954071E-2,2.1607085E2,1.8903637E-2,1.0470191E-2,7.3709283E2,1.8811747E3,3.868516E3,2.74128E-2,-2.3362884E-1,1.6882386E-2,2.1907574E-1,8.10427E2,1.00335E3,2.4376166E2,8.02575E2,1.5637869E3,-3.0505833E-1,3.5685454E3,1.7013835E-2,1.249269E-1,-1.3065363E-1,4.4931315E-2,-5.845288E-3,-3.83598E-1,-1.5077206E-2,-1.6235722E-2,3.6230806E-1,-3.4612688E-1,4.3540534E-2,-1.355533E-1,9.749243E-2,-9.396665E-3,-1.5984862E-1,2.4416848E-1,-1.6794789E-1],"split_indices":[4,1,1,1,4,0,0,4,0,4,4,1,4,4,3,1,3,0,0,4,0,1,2,2,3,2,0,2,4,0,0,0,0,0,0,0,0,0,0,0,0,0,0,0,0],"split_type":[0,0,0,0,0,0,0,0,0,0,0,0,0,0,0,0,0,0,0,0,0,0,0,0,0,0,0,0,0,0,0,0,0,0,0,0,0,0,0,0,0,0,0,0,0],"sum_hessian":[9.462396E2,9.4276434E2,3.4753344E0,1.31539345E1,9.2961035E2,1.9422126E0,1.5331218E0,1.0058637E1,3.0952985E0,5.327884E2,3.9682202E2,4.4791846E0,5.579452E0,4.477319E2,8.5056465E1,1.1033711E1,3.857883E2,1.3914046E0,3.0877798E0,3.7344685E0,1.8449836E0,4.4429425E2,3.437648E0,7.6247883E0,7.743168E1,9.1861925E0,1.8475186E0,3.7588586E2,9.902441E0,2.5614438E0,1.1730245E0,5.63662E1,3.8792804E2,1.739294E0,1.698354E0,2.414908E0,5.2098804E0,2.16792E0,7.526376E1,7.970215E0,1.2159777E0,3.6725742E2,8.62843E0,7.444482E0,2.4579592E0],"tree_param":{"num_deleted":"0","num_feature":"5","num_nodes":"45","size_leaf_vector":"1"}},{"base_weights":[-4.0756838E-4,1.1298726E-1,-7.900728E-3,-4.7845043E-2,3.2145894E-1,-4.682778E-1,-5.5377227E-3,-3.2451117E-1,9.565531E-2,6.728458E-1,1.7783737E-1,-5.25477E-2,-1.6514893E-1,2.7812768E-2,-3.3491988E-2,-8.554033E-2,-2.695483E-1,3.1049845E-1,-2.1860713E-1,-4.617105E-2,2.7458078E-1,-1.9160777E-1,3.3358872E-1,1.8553488E-2,3.2738537E-1,-3.3709213E-1,-1.3111207E-2,3.8303328E-1,-4.6169448E-1,6.016982E-1,1.4060982E-1,-2.4749854E-1,1.2323029E-1,1.6338135E-1,7.475706E-1,2.611551E-2,-7.025197E-1,-1.7307992E-1,-8.883342E-1,2.4142131E-1,-3.753011E-2,-5.1275495E-2,2.7838227E-1,-2.0897193E-1,6.280196E-2,2.8764589E-2,2.2285149E-1,-1.1188669E-1,1.6341712E-1,2.9698357E-1,-6.45291E-2,8.5833654E-2,-1.4958589E-1,2.939422E-1,6.749093E-2,3.6794113E-3,1.7907444E-1,1.2066284E-2,-3.675732E-1,-1.19404376E-1,4.2723373E-1,-3.469886E-1,5.2181542E-2,2.3644539E-2,3.4686998E-1,-8.4493466E-2,-5.8968235E-3],"categories":[],"categories_nodes":[],"categories_segments":[],"categories_sizes":[],"default_left":[0,0,0,0,0,0,0,0,0,0,0,0,0,0,0,0,0,0,0,0,0,0,0,0,0,0,0,0,0,0,0,0,0,0,0,0,0,0,0,0,0,0,0,0,0,0,0,0,0,0,0,0,0,0,0,0,0,0,0,0,0,0,0,0,0,0,0],"id":9,"left_children":[1,3,5,7,9,11,13,15,17,19,21,-1,-1,23,25,27,-1,29,31,-1,-1,-1,33,35,-1,37,39,41,43,45,47,-1,49,51,53,55,57,59,61,63,65,-1,-1,-1,-1,-1,-1,-1,-1,-1,-1,-1,-1,-1,-1,-1,-1,-1,-1,-1,-1,-1,-1,-1,-1,-1,-1],"loss_changes":[8.0374736E-1,1.9812979E0,9.626237E-1,1.3796649E0,1.1755445E0,1.247853E-2,8.24825E-1,1.5456892E0,1.6302091E0,1.5612667E0,2.7028344E0,0E0,0E0,3.953189E0,2.9731452E0,1.8437214E0,0E0,6.157663E-1,2.1709476E0,0E0,0E0,0E0,1.0826473E0,2.2051942E0,0E0,2.5794845E0,2.8183162E0,1.5947527E0,1.0441042E0,2.7939248E-1,2.3295634E0,0E0,2.3400428E0,1.2310742E0,3.5024118E-1,3.138128E0,1.6791863E0,9.383573E0,2.1079216E0,5.814451E0,1.7977457E0,0E0,0E0,0E0,0E0,0E0,0E0,0E0,0E0,0E0,0E0,0E0,0E0,0E0,0E0,0E0,0E0,0E0,0E0,0E0,0E0,0E0,0E0,0E0,0E0,0E0,0E0],"parents":[2147483647,0,0,1,1,2,2,3,3,4,4,5,5,6,6,7,7,8,8,9,9,10,10,13,13,14,14,15,15,17,17,18,18,22,22,23,23,25,25,26,26,27,27,28,28,29,29,30,30,32,32,33,33,34,34,35,35,36,36,37,37,38,38,39,39,40,40],"right_children":[2,4,6,8,10,12,14,16,18,20,22,-1,-1,24,26,28,-1,30,32,-1,-1,-1,34,36,-1,38,40,42,44,46,48,-1,50,52,54,56,58,60,62,64,66,-1,-1,-1,-1,-1,-1,-1,-1,-1,-1,-1,-1,-1,-1,-1,-1,-1,-1,-1,-1,-1,-1,-1,-1,-1,-1],"split_conditions":[4.8621697E-3,4.1195964E-3,4.94661E-3,1.0104864E3,9.977E2,1.1447217E3,1.2506224E3,3.857074E-3,1.4666945E3,7.6709705E2,1.2201572E3,-5.25477E-2,-1.6514893E-1,1.260871E3,1.2857689E3,8.06805E2,-2.695483E-1,2.5006877E-3,1.5641737E3,-4.617105E-2,2.7458078E-1,-1.9160777E-1,1.8266694E3,1.2496E3,3.2738537E-1,1.5431721E-2,1.37038E3,7.0881726E2,9.743E2,1.2857689E3,3.3595047E-3,-2.4749854E-1,1.6795681E3,1.599E3,4.671606E-3,1.2356953E3,6.538721E-3,1.3454992E-2,2.1559054E-2,1.37106E3,1.400788E3,-5.1275495E-2,2.7838227E-1,-2.0897193E-1,6.280196E-2,2.8764589E-2,2.2285149E-1,-1.1188669E-1,1.6341712E-1,2.9698357E-1,-6.45291E-2,8.5833654E-2,-1.4958589E-1,2.939422E-1,6.749093E-2,3.6794113E-3,1.7907444E-1,1.2066284E-2,-3.675732E-1,-1.19404376E-1,4.2723373E-1,-3.469886E-1,5.2181542E-2,2.3644539E-2,3.4686998E-1,-8.4493466E-2,-5.8968235E-3],"split_indices":[4,4,4,1,1,1,2,4,1,1,1,0,0,1,2,3,0,4,1,0,0,0,3,1,0,4,2,1,1,2,4,0,1,1,4,2,4,4,4,3,3,0,0,0,0,0,0,0,0,0,0,0,0,0,0,0,0,0,0,0,0,0,0,0,0,0,0],"split_type":[0,0,0,0,0,0,0,0,0,0,0,0,0,0,0,0,0,0,0,0,0,0,0,0,0,0,0,0,0,0,0,0,0,0,0,0,0,0,0,0,0,0,0,0,0,0,0,0,0,0,0,0,0,0,0,0,0,0,0,0,0,0,0,0,0,0,0],"sum_hessian":[9.438845E2,5.7633385E1,8.8625116E2,3.2968925E1,2.466446E1,3.5188246E0,8.8273236E2,1.082914E1,2.2139786E1,6.0870156E0,1.8577442E1,1.4565308E0,2.0622938E0,4.0251813E2,4.8021423E2,8.457141E0,2.371998E0,1.3157046E1,8.982739E0,1.4629585E0,4.6240573E0,2.4792418E0,1.60982E1,4.0005243E2,2.4656718E0,2.9231441E1,4.509828E2,3.7577903E0,4.699351E0,3.9112308E0,9.245816E0,2.728759E0,6.25398E0,1.2396199E1,3.702001E0,3.9685434E2,3.1980994E0,2.3541168E1,5.690272E0,3.8700294E1,4.122825E2,2.2037745E0,1.5540159E0,3.4527457E0,1.2466052E0,1.2196392E0,2.6915915E0,4.1054873E0,5.1403284E0,1.2151228E0,5.038857E0,1.0936457E1,1.4597431E0,1.9573249E0,1.7446762E0,3.8844986E2,8.404495E0,1.7023209E0,1.4957786E0,2.129322E1,2.2479482E0,4.4719763E0,1.2182957E0,3.378179E1,4.9185E0,2.712093E1,3.8516156E2],"tree_param":{"num_deleted":"0","num_feature":"5","num_nodes":"67","size_leaf_vector":"1"}},{"base_weights":[6.0454744E-4,-1.1471676E-3,3.8114104E-1,8.005888E-2,-9.200218E-3,7.72077E-2,2.0327713E-1,3.495128E-2,2.9367125E-1,-3.6158222E-1,-5.724389E-3,8.06202E-2,-4.6474114E-2,6.540738E-2,-4.187582E-1,4.474772E-1,-1.8118128E-1,1.1858563E-1,-6.080903E-1,1.8427481E-1,-1.0196375E-2,3.7778735E-2,4.927054E-1,-6.094726E-2,-1.6851617E-1,6.586212E-1,2.0093368E-1,-9.088477E-2,-3.1820437E-1,2.9283908E-1,-1.5649584E-1,-9.7769015E-2,6.217023E-3,1.971645E-2,-2.079136E-1,2.2404131E-1,1.3477839E-2,3.943707E-2,2.3806632E-1,-2.045024E-2,2.690757E-1,5.9246253E-2,-8.344003E-2,2.5597967E-2,1.6218065E-1,-1.7083356E-2,-1.4930788E-1,2.9402795E-1,-1.1548122E-4],"categories":[],"categories_nodes":[],"categories_segments":[],"categories_sizes":[],"default_left":[0,0,0,0,0,0,0,0,0,0,0,0,0,0,0,0,0,0,0,0,0,0,0,0,0,0,0,0,0,0,0,0,0,0,0,0,0,0,0,0,0,0,0,0,0,0,0,0,0],"id":10,"left_children":[1,3,5,7,9,11,-1,13,15,17,19,-1,-1,21,23,25,-1,-1,27,29,31,33,35,-1,-1,37,39,41,-1,43,-1,45,47,-1,-1,-1,-1,-1,-1,-1,-1,-1,-1,-1,-1,-1,-1,-1,-1],"loss_changes":[6.2866014E-1,6.1487955E-1,3.3705002E-1,8.071323E-1,1.0455034E0,1.8666746E-1,0E0,1.0109186E0,2.293508E0,1.796006E0,7.2235966E-1,0E0,0E0,7.7902234E-1,2.8048694E-2,5.4885554E-1,0E0,0E0,1.4680712E0,1.6511636E0,1.1927555E0,1.3636084E0,4.238739E-1,0E0,0E0,3.6585784E-1,1.4612951E0,2.8240642E-1,0E0,8.580371E-1,0E0,2.1100307E0,4.4973197E0,0E0,0E0,0E0,0E0,0E0,0E0,0E0,0E0,0E0,0E0,0E0,0E0,0E0,0E0,0E0,0E0],"parents":[2147483647,0,0,1,1,2,2,3,3,4,4,5,5,7,7,8,8,9,9,10,10,13,13,14,14,15,15,18,18,19,19,20,20,21,21,22,22,25,25,26,26,27,27,29,29,31,31,32,32],"right_children":[2,4,6,8,10,12,-1,14,16,18,20,-1,-1,22,24,26,-1,-1,28,30,32,34,36,-1,-1,38,40,42,-1,44,-1,46,48,-1,-1,-1,-1,-1,-1,-1,-1,-1,-1,-1,-1,-1,-1,-1,-1],"split_conditions":[4.5652628E-2,5.4684267E-3,1.1752356E3,5.151983E-3,5.6208163E-3,1.0988386E3,2.0327713E-1,5.078364E-3,1.7135875E3,9.946E2,5.9829163E-3,8.06202E-2,-4.6474114E-2,2.9838262E3,1.3539E3,5.311486E-3,-1.8118128E-1,1.1858563E-1,5.5315075E-3,2.8367585E3,7.684965E-3,2.0854E3,3.65315E3,-6.094726E-2,-1.6851617E-1,9.962602E2,1.5198219E3,1.3250757E3,-3.1820437E-1,5.846425E-3,-1.5649584E-1,7.5550852E-3,7.734668E-3,1.971645E-2,-2.079136E-1,2.2404131E-1,1.3477839E-2,3.943707E-2,2.3806632E-1,-2.045024E-2,2.690757E-1,5.9246253E-2,-8.344003E-2,2.5597967E-2,1.6218065E-1,-1.7083356E-2,-1.4930788E-1,2.9402795E-1,-1.1548122E-4],"split_indices":[4,4,2,4,4,3,0,4,1,1,4,0,0,1,1,4,0,0,4,1,4,3,1,0,0,3,1,1,0,4,0,4,4,0,0,0,0,0,0,0,0,0,0,0,0,0,0,0,0],"split_type":[0,0,0,0,0,0,0,0,0,0,0,0,0,0,0,0,0,0,0,0,0,0,0,0,0,0,0,0,0,0,0,0,0,0,0,0,0,0,0,0,0,0,0,0,0,0,0,0,0],"sum_hessian":[9.414406E2,9.381192E2,3.3214376E0,8.3831406E1,8.542878E2,2.262382E0,1.0590556E0,7.0176216E1,1.3655188E1,7.337908E0,8.469499E2,1.1531627E0,1.1092193E0,6.6563835E1,3.6123834E0,1.2085762E1,1.569426E0,1.6544911E0,5.683417E0,1.8551565E1,8.283983E2,6.3543583E1,3.0202494E0,2.405587E0,1.2067963E0,5.6099157E0,6.4758463E0,3.2127757E0,2.470641E0,1.6585985E1,1.9655802E0,1.2997395E2,6.984244E2,6.208005E1,1.463534E0,1.5008016E0,1.5194478E0,1.545624E0,4.0642915E0,5.3206754E0,1.1551712E0,1.2433201E0,1.9694556E0,9.757791E0,6.828195E0,1.18971634E2,1.1002314E1,3.7099035E0,6.947145E2],"tree_param":{"num_deleted":"0","num_feature":"5","num_nodes":"49","size_leaf_vector":"1"}},{"base_weights":[8.110269E-4,2.0987989E-1,-2.2110052E-3,-1.569754E-1,5.9243196E-1,-4.8628443E-1,2.0822303E-4,1.9067746E-1,-4.6591482E-1,2.421529E-2,7.095854E-1,-2.396871E-1,6.077236E-2,7.554252E-1,-3.327426E-3,1.71039E-1,-8.098794E-2,1.6011683E-2,-2.1512982E-1,2.3326518E-1,6.258805E-2,2.725361E-2,2.944638E-1,-2.5749376E-1,4.351837E-3,6.9208495E-2,-6.083131E-1,5.277798E-1,-7.9528557E-4,8.1657015E-2,-1.0046637E-1,-2.502697E-1,-8.443249E-3,8.0589475E-3,2.5700322E-1,-1.5249348E-1,1.0651157E-3],"categories":[],"categories_nodes":[],"categories_segments":[],"categories_sizes":[],"default_left":[0,0,0,0,0,0,0,0,0,0,0,0,0,0,0,0,0,0,0,0,0,0,0,0,0,0,0,0,0,0,0,0,0,0,0,0,0],"id":11,"left_children":[1,3,5,7,9,11,13,15,17,-1,19,-1,-1,21,23,-1,-1,-1,-1,-1,-1,-1,-1,25,27,29,31,33,35,-1,-1,-1,-1,-1,-1,-1,-1],"loss_changes":[5.949121E-1,1.9758897E0,1.0873879E0,9.0932906E-1,3.4901237E-1,1.156376E0,2.471971E0,9.0621465E-1,6.037523E-1,0E0,2.1174192E-2,0E0,0E0,5.591054E-1,1.7997396E0,0E0,0E0,0E0,0E0,0E0,0E0,0E0,0E0,3.1415071E0,2.4129512E0,1.3133351E0,1.6990576E0,1.4138334E0,1.9597356E0,0E0,0E0,0E0,0E0,0E0,0E0,0E0,0E0],"parents":[2147483647,0,0,1,1,2,2,3,3,4,4,5,5,6,6,7,7,8,8,10,10,13,13,14,14,23,23,24,24,25,25,26,26,27,27,28,28],"right_children":[2,4,6,8,10,12,14,16,18,-1,20,-1,-1,22,24,-1,-1,-1,-1,-1,-1,-1,-1,26,28,30,32,34,36,-1,-1,-1,-1,-1,-1,-1,-1],"split_conditions":[2.3193637E2,2.238794E2,2.3439702E2,2.155084E2,8.153651E-3,2.3906883E2,2.3531184E2,2.1607085E2,2.1492488E2,2.421529E-2,2.1784116E-2,-2.396871E-1,6.077236E-2,1.2255175E-2,2.4761713E2,1.71039E-1,-8.098794E-2,1.6011683E-2,-2.1512982E-1,2.3326518E-1,6.258805E-2,2.725361E-2,2.944638E-1,1.2396235E-2,2.5124683E2,2.4207521E2,2.4586613E2,2.4943762E2,2.5234123E2,8.1657015E-2,-1.0046637E-1,-2.502697E-1,-8.443249E-3,8.0589475E-3,2.5700322E-1,-1.5249348E-1,1.0651157E-3],"split_indices":[1,2,1,2,4,3,3,1,3,0,4,0,0,4,1,0,0,0,0,0,0,0,0,4,1,3,2,2,3,0,0,0,0,0,0,0,0],"split_type":[0,0,0,0,0,0,0,0,0,0,0,0,0,0,0,0,0,0,0,0,0,0,0,0,0,0,0,0,0,0,0,0,0,0,0,0,0],"sum_hessian":[9.3986115E2,1.2416529E1,9.2744464E2,6.639307E0,5.7772217E0,3.6173928E0,9.238272E2,3.3040373E0,3.3352695E0,1.3909009E0,4.386321E0,2.3781333E0,1.2392595E0,3.3139117E0,9.205133E2,1.6813322E0,1.6227052E0,1.3440864E0,1.991183E0,3.3761525E0,1.0101686E0,1.197159E0,2.1167526E0,2.6042253E1,8.9447107E2,1.3900276E1,1.2141978E1,7.721362E0,8.867497E2,9.469884E0,4.430392E0,8.423812E0,3.7181664E0,3.4890914E0,4.2322707E0,6.543867E0,8.802058E2],"tree_param":{"num_deleted":"0","num_feature":"5","num_nodes":"37","size_leaf_vector":"1"}},{"base_weights":[8.4658473E-4,-5.0553316E-3,1.0489138E-1,8.94823E-4,-4.428364E-1,2.8936118E-1,-4.7204148E-2,-4.058599E-3,5.176651E-1,3.8202378E-1,-7.288825E-1,-1.5285632E-1,5.637852E-1,-8.8280195E-1,6.283583E-2,3.5830296E-3,-2.4278368E-1,-1.3470244E-1,8.7684596E-1,-1.98285E-1,3.4953967E-1,-2.6807514E-1,-2.3561059E-1,2.6770422E-1,-2.5945324E-1,2.788552E-1,2.5343475E-1,-4.8172446E-3,-4.020414E-1,-9.760417E-2,3.0203435E-1,-3.7048755E-3,2.6196128E-1,1.7345111E-1,-3.3044618E-1,3.4117624E-1,7.750721E-2,5.9939027E-2,-1.8308175E-1,-3.23689E-1,7.349736E-1,-6.447222E-1,6.8572277E-1,3.313091E-1,-4.6460813E-1,2.2415227E-1,3.641196E-2,3.5324257E-2,-3.5072404E-3,1.6493851E-1,-1.2129009E-2,-1.7573757E-1,3.856447E-1,-1.3682485E-1,4.5284785E-2,4.5814253E-2,-2.1638039E-1,3.5471436E-1,-1.2060066E-2,4.0687196E-2,-3.407346E-1,7.16445E-2,3.49136E-1,-7.679875E-2,1.4169449E-1,3.2677446E-3,-2.862929E-1,-2.4617389E-1,1.423547E-1],"categories":[],"categories_nodes":[],"categories_segments":[],"categories_sizes":[],"default_left":[0,0,0,0,0,0,0,0,0,0,0,0,0,0,0,0,0,0,0,0,0,0,0,0,0,0,0,0,0,0,0,0,0,0,0,0,0,0,0,0,0,0,0,0,0,0,0,0,0,0,0,0,0,0,0,0,0,0,0,0,0,0,0,0,0,0,0,0,0],"id":12,"left_children":[1,3,5,7,9,11,13,15,17,19,21,23,25,27,29,31,33,-1,35,-1,-1,-1,37,39,-1,-1,41,-1,-1,43,45,47,49,51,53,-1,-1,-1,-1,55,57,59,61,63,65,-1,67,-1,-1,-1,-1,-1,-1,-1,-1,-1,-1,-1,-1,-1,-1,-1,-1,-1,-1,-1,-1,-1,-1],"loss_changes":[5.7762885E-1,2.3195286E0,1.4303813E0,2.2530897E0,3.0957842E0,2.8723588E0,2.6792839E0,1.5916342E0,3.2952783E0,3.817152E0,5.376916E-1,3.0996134E0,1.3966928E0,1.3210671E0,1.0329797E0,1.593923E0,1.0447578E0,0E0,7.420435E-1,0E0,0E0,0E0,7.195515E-1,2.1129158E0,0E0,0E0,3.996302E0,0E0,0E0,2.736539E0,1.2429028E0,8.0031866E-1,2.0433033E0,5.281626E0,1.4416552E0,0E0,0E0,0E0,0E0,8.0888575E-1,1.4681368E0,1.4913055E0,1.1459131E0,7.9575336E-1,2.166068E0,0E0,3.3099E0,0E0,0E0,0E0,0E0,0E0,0E0,0E0,0E0,0E0,0E0,0E0,0E0,0E0,0E0,0E0,0E0,0E0,0E0,0E0,0E0,0E0,0E0],"parents":[2147483647,0,0,1,1,2,2,3,3,4,4,5,5,6,6,7,7,8,8,9,9,10,10,11,11,12,12,13,13,14,14,15,15,16,16,18,18,22,22,23,23,26,26,29,29,30,30,31,31,32,32,33,33,34,34,39,39,40,40,41,41,42,42,43,43,44,44,46,46],"right_children":[2,4,6,8,10,12,14,16,18,20,22,24,26,28,30,32,34,-1,36,-1,-1,-1,38,40,-1,-1,42,-1,-1,44,46,48,50,52,54,-1,-1,-1,-1,56,58,60,62,64,66,-1,68,-1,-1,-1,-1,-1,-1,-1,-1,-1,-1,-1,-1,-1,-1,-1,-1,-1,-1,-1,-1,-1,-1],"split_conditions":[2.3875767E-2,2.2342814E-2,1.126627E3,2.1559054E-2,9.507685E2,2.7871735E2,1.1752356E3,2.001558E-2,1.1160367E3,2.5572775E2,2.3443E-2,2.514448E2,7.761833E2,1.171199E3,2.9399788E-2,1.8903637E-2,7.4409216E2,-1.3470244E-1,1.5206866E3,-1.98285E-1,3.4953967E-1,-2.6807514E-1,1.3999089E3,2.3906883E2,-2.5945324E-1,2.788552E-1,8.0259424E2,-4.8172446E-3,-4.020414E-1,2.5675677E-2,1.5247656E3,2.5572775E2,1.9482998E-2,2.5558441E2,1.6277483E3,3.4117624E-1,7.750721E-2,5.9939027E-2,-1.8308175E-1,2.3531184E2,2.4718083E2,8.0596655E2,1.1118499E3,1.2296987E3,1.5750177E3,2.2415227E-1,1.5596317E3,3.5324257E-2,-3.5072404E-3,1.6493851E-1,-1.2129009E-2,-1.7573757E-1,3.856447E-1,-1.3682485E-1,4.5284785E-2,4.5814253E-2,-2.1638039E-1,3.5471436E-1,-1.2060066E-2,4.0687196E-2,-3.407346E-1,7.16445E-2,3.49136E-1,-7.679875E-2,1.4169449E-1,3.2677446E-3,-2.862929E-1,-2.4617389E-1,1.423547E-1],"split_indices":[4,4,2,4,2,3,2,4,2,2,4,2,1,1,4,4,1,0,2,0,0,0,1,3,0,0,2,0,0,4,1,2,4,3,2,0,0,0,0,3,3,1,1,2,1,0,2,0,0,0,0,0,0,0,0,0,0,0,0,0,0,0,0,0,0,0,0,0,0],"split_type":[0,0,0,0,0,0,0,0,0,0,0,0,0,0,0,0,0,0,0,0,0,0,0,0,0,0,0,0,0,0,0,0,0,0,0,0,0,0,0,0,0,0,0,0,0,0,0,0,0,0,0,0,0,0,0,0,0,0,0,0,0,0,0,0,0,0,0,0,0],"sum_hessian":[9.388025E2,8.893081E2,4.949438E1,8.783676E2,1.0940485E1,2.1958912E1,2.7535467E1,8.710108E2,7.356794E0,2.730658E0,8.209826E0,8.578376E0,1.3380535E1,2.3870032E0,2.5148464E1,8.4494885E2,2.6061958E1,1.9252439E0,5.43155E0,1.2379289E0,1.4927292E0,5.5463734E0,2.663453E0,5.7851677E0,2.793208E0,5.2264156E0,8.1541195E0,1.1819947E0,1.2050085E0,1.5406597E1,9.741867E0,8.227284E2,2.2220495E1,4.3637223E0,2.1698236E1,3.2319906E0,2.1995595E0,1.4477274E0,1.2157255E0,2.6890647E0,3.0961032E0,2.4897642E0,5.6643558E0,7.148956E0,8.257642E0,2.9631655E0,6.778702E0,4.9911694E1,7.728167E2,1.0965108E1,1.1255388E1,2.8744237E0,1.4892988E0,1.724908E1,4.4491563E0,1.5034405E0,1.1856242E0,1.6300027E0,1.4661005E0,1.2411921E0,1.2485722E0,3.7026026E0,1.9617529E0,1.2261995E0,5.922756E0,4.685639E0,3.572003E0,1.9977667E0,4.7809353E0],"tree_param":{"num_deleted":"0","num_feature":"5","num_nodes":"69","size_leaf_vector":"1"}},{"base_weights":[8.734477E-4,-2.6364324E-3,1.6609365E-1,3.1970888E-3,-6.3333637E-1,4.41822E-1,-2.31379E-1,2.4705863E-4,2.531229E-1,-8.7658936E-1,9.710657E-2,1.3043654E-1,9.3365866E-1,3.8337454E-2,-2.115525E-1,5.8477027E-3,-2.9171792E-1,-3.3622976E-2,-1.0975049E0,5.5066454E-1,-2.0305718E-1,9.835416E-2,3.5756037E-1,-1.702111E-1,4.0854055E-1,1.2080225E-3,7.6772046E-1,-5.033668E-1,1.6392416E-1,-4.0996125E-1,-2.522782E-2,2.985177E-1,1.4511697E-1,1.8920022E-1,5.417794E-3,-3.0208458E-3,1.4870859E-2,3.110059E-1,-2.5873797E-2,-5.3973272E-2,-2.902859E-1,2.766526E-1,-2.8741485E-1,1.2480858E-1,-2.5423804E-2],"categories":[],"categories_nodes":[],"categories_segments":[],"categories_sizes":[],"default_left":[0,0,0,0,0,0,0,0,0,0,0,0,0,0,0,0,0,0,0,0,0,0,0,0,0,0,0,0,0,0,0,0,0,0,0,0,0,0,0,0,0,0,0,0,0],"id":13,"left_children":[1,3,5,7,9,11,13,15,-1,17,-1,19,21,23,-1,25,27,-1,29,31,-1,-1,-1,-1,33,35,37,39,41,-1,-1,-1,43,-1,-1,-1,-1,-1,-1,-1,-1,-1,-1,-1,-1],"loss_changes":[5.438997E-1,3.381921E0,2.240436E0,2.2592983E0,2.2448428E0,1.6950352E0,1.1320704E0,1.4881587E0,0E0,1.0569544E0,0E0,3.2313626E0,3.0323648E-1,1.6800838E0,0E0,3.1553707E0,1.7343849E0,0E0,1.3318443E0,9.537233E-1,0E0,0E0,0E0,0E0,3.8673842E-1,4.8508814E-1,1.3304555E0,1.6191673E0,6.1472673E0,0E0,0E0,0E0,3.0655017E-1,0E0,0E0,0E0,0E0,0E0,0E0,0E0,0E0,0E0,0E0,0E0,0E0],"parents":[2147483647,0,0,1,1,2,2,3,3,4,4,5,5,6,6,7,7,9,9,11,11,12,12,13,13,15,15,16,16,18,18,19,19,24,24,25,25,26,26,27,27,28,28,32,32],"right_children":[2,4,6,8,10,12,14,16,-1,18,-1,20,22,24,-1,26,28,-1,30,32,-1,-1,-1,-1,34,36,38,40,42,-1,-1,-1,44,-1,-1,-1,-1,-1,-1,-1,-1,-1,-1,-1,-1],"split_conditions":[3.9597148E3,3.8715635E3,4.0914592E3,3.868516E3,2.9399788E-2,4.0396396E3,1.1628382E-2,3.621825E3,2.531229E-1,3.868516E3,9.710657E-2,3.9935293E3,1.0983352E-2,6.919264E-3,-2.115525E-1,3.5792336E3,3.7913596E3,-3.3622976E-2,3.977074E3,3.9166665E3,-2.0305718E-1,9.835416E-2,3.5756037E-1,-1.702111E-1,8.639338E-3,1.663944E-2,1.130346E-2,3.713918E3,1.442088E-2,-4.0996125E-1,-2.522782E-2,2.985177E-1,9.1104945E-3,1.8920022E-1,5.417794E-3,-3.0208458E-3,1.4870859E-2,3.110059E-1,-2.5873797E-2,-5.3973272E-2,-2.902859E-1,2.766526E-1,-2.8741485E-1,1.2480858E-1,-2.5423804E-2],"split_indices":[3,1,2,3,4,2,4,1,0,3,0,2,4,4,0,3,2,0,1,1,0,0,0,0,4,4,4,1,4,0,0,0,4,0,0,0,0,0,0,0,0,0,0,0,0],"split_type":[0,0,0,0,0,0,0,0,0,0,0,0,0,0,0,0,0,0,0,0,0,0,0,0,0,0,0,0,0,0,0,0,0,0,0,0,0,0,0,0,0,0,0,0,0],"sum_hessian":[9.361596E2,9.176494E2,1.851018E1,9.102254E2,7.4240007E0,1.0862939E1,7.647241E0,9.080388E2,2.186614E0,5.986438E0,1.4375627E0,7.4264197E0,3.4365187E0,5.4588065E0,2.1884346E0,8.9190967E2,1.6129166E1,1.6799694E0,4.3064685E0,5.093133E0,2.3332868E0,1.7052797E0,1.7312388E0,1.8687154E0,3.590091E0,8.875065E2,4.4031835E0,1.0941855E1,5.1873097E0,3.1276999E0,1.1787686E0,1.7365847E0,3.3565483E0,1.8962811E0,1.69381E0,7.2032446E2,1.6718199E2,3.185812E0,1.2173716E0,7.2665825E0,3.6752732E0,3.2016506E0,1.9856591E0,1.1689503E0,2.1875982E0],"tree_param":{"num_deleted":"0","num_feature":"5","num_nodes":"45","size_leaf_vector":"1"}},{"base_weights":[8.303039E-4,-7.541514E-2,7.452885E-3,2.5319599E-2,-5.971511E-1,2.9503694E-1,-2.9226101E-4,1.298383E-1,-2.5459406E-1,-8.520109E-1,2.4932893E-1,7.950739E-2,7.884912E-1,-6.321233E-1,4.3545133E-3,-1.125595E-2,5.7966906E-1,-3.3641016E-1,-1.2115164E-1,-3.8028264E-1,-4.110827E-1,1.890501E-1,-6.5588094E-2,2.9735717E-1,-3.9386594E-1,3.5410905E-1,4.1928846E-1,-1.0031935E0,-5.551904E-2,5.460387E-1,-2.3551767E-4,9.780734E-2,-5.6906825E-1,3.3680576E-1,2.525608E-1,9.633369E-2,-4.1052535E-1,-8.9594674E-1,1.5577248E-1,-6.2367864E-2,5.968455E-1,-2.8653812E-1,1.6066001E-1,-1.6597241E-2,1.7160192E-1,-3.8709557E-1,-6.801852E-2,1.8740135E-1,-2.115191E-1,7.7395916E-1,-8.6331755E-2,-7.095835E-1,7.555925E-3,-1.549404E-3,2.8171363E-1,-2.554104E-1,9.1854945E-2,-1.3092367E-1,2.1163715E-1,-6.0069207E-2,1.1133284E-1,-3.2114315E-1,-3.0097237E-2,-3.1374836E-1,-1.0382382E-1,2.6869494E-1,-1.3476156E-1,3.3264548E-1,2.9040603E-2,2.0572464E-1,-1.1319305E-1,6.6963665E-2,3.40811E-1,6.588868E-2,-2.8864434E-1,8.707444E-2,-8.375139E-4],"categories":[],"categories_nodes":[],"categories_segments":[],"categories_sizes":[],"default_left":[0,0,0,0,0,0,0,0,0,0,0,0,0,0,0,0,0,0,0,0,0,0,0,0,0,0,0,0,0,0,0,0,0,0,0,0,0,0,0,0,0,0,0,0,0,0,0,0,0,0,0,0,0,0,0,0,0,0,0,0,0,0,0,0,0,0,0,0,0,0,0,0,0,0,0,0,0],"id":14,"left_children":[1,3,5,7,9,11,13,15,17,19,21,23,25,27,29,31,33,-1,35,37,-1,-1,-1,39,41,-1,43,45,47,49,51,53,55,-1,57,59,61,63,-1,65,67,-1,69,-1,-1,-1,-1,-1,-1,71,-1,73,75,-1,-1,-1,-1,-1,-1,-1,-1,-1,-1,-1,-1,-1,-1,-1,-1,-1,-1,-1,-1,-1,-1,-1,-1],"loss_changes":[4.7324127E-1,3.9516854E0,1.9205463E0,1.8978184E0,2.8361697E0,2.3422637E0,2.4707136E0,2.9941185E0,1.9075832E0,1.8195467E0,7.772069E-1,1.8548303E0,4.8342657E-1,1.2588377E0,2.0773451E0,2.2952871E0,1.7162235E0,0E0,1.0736305E0,3.4320679E0,0E0,0E0,0E0,1.3418458E0,1.9402249E0,0E0,3.9642268E-1,5.277798E-1,1.9709857E0,1.5568678E0,4.589486E0,2.7461843E0,1.7845128E0,0E0,2.9028144E0,9.0473473E-1,1.3748413E0,3.3569336E-3,0E0,2.7767363E0,1.6086233E0,0E0,1.3162986E0,0E0,0E0,0E0,0E0,0E0,0E0,8.998778E-1,0E0,2.328641E0,2.4035866E0,0E0,0E0,0E0,0E0,0E0,0E0,0E0,0E0,0E0,0E0,0E0,0E0,0E0,0E0,0E0,0E0,0E0,0E0,0E0,0E0,0E0,0E0,0E0,0E0],"parents":[2147483647,0,0,1,1,2,2,3,3,4,4,5,5,6,6,7,7,8,8,9,9,10,10,11,11,12,12,13,13,14,14,15,15,16,16,18,18,19,19,23,23,24,24,26,26,27,27,28,28,29,29,30,30,31,31,32,32,34,34,35,35,36,36,37,37,39,39,40,40,42,42,49,49,51,51,52,52],"right_children":[2,4,6,8,10,12,14,16,18,20,22,24,26,28,30,32,34,-1,36,38,-1,-1,-1,40,42,-1,44,46,48,50,52,54,56,-1,58,60,62,64,-1,66,68,-1,70,-1,-1,-1,-1,-1,-1,72,-1,74,76,-1,-1,-1,-1,-1,-1,-1,-1,-1,-1,-1,-1,-1,-1,-1,-1,-1,-1,-1,-1,-1,-1,-1,-1],"split_conditions":[2.716648E2,2.5572775E2,7.047599E2,1.7604059E-2,1.9067166E-2,1.8296046E-2,7.167088E2,2.4943762E2,1.79439E-2,1.4671516E-2,2.1784116E-2,1.3173584E-2,2.0376766E-2,7.1690137E2,7.3427606E2,2.4543024E2,2.5124683E2,-3.3641016E-1,2.4507768E2,1.3120115E-2,-4.110827E-1,1.890501E-1,-6.5588094E-2,9.590175E-3,1.5632516E-2,3.5410905E-1,2.5214532E-2,6.3518477E-3,7.329502E2,7.3709283E2,7.395154E2,2.4761713E2,1.6511025E-2,3.3680576E-1,2.5235294E2,2.3811682E2,2.4761713E2,9.935101E-3,1.5577248E-1,5.846425E-3,1.2255175E-2,-2.8653812E-1,2.7873608E2,-1.6597241E-2,1.7160192E-1,-3.8709557E-1,-6.801852E-2,1.8740135E-1,-2.115191E-1,1.2594281E-2,-8.6331755E-2,9.638668E-3,7.944E2,-1.549404E-3,2.8171363E-1,-2.554104E-1,9.1854945E-2,-1.3092367E-1,2.1163715E-1,-6.0069207E-2,1.1133284E-1,-3.2114315E-1,-3.0097237E-2,-3.1374836E-1,-1.0382382E-1,2.6869494E-1,-1.3476156E-1,3.3264548E-1,2.9040603E-2,2.0572464E-1,-1.1319305E-1,6.6963665E-2,3.40811E-1,6.588868E-2,-2.8864434E-1,8.707444E-2,-8.375139E-4],"split_indices":[2,2,3,4,4,4,1,2,4,4,4,4,4,3,2,3,1,0,1,4,0,0,0,4,4,0,4,4,3,3,3,1,4,0,2,3,1,4,0,4,4,0,1,0,0,0,0,0,0,4,0,4,1,0,0,0,0,0,0,0,0,0,0,0,0,0,0,0,0,0,0,0,0,0,0,0,0],"split_type":[0,0,0,0,0,0,0,0,0,0,0,0,0,0,0,0,0,0,0,0,0,0,0,0,0,0,0,0,0,0,0,0,0,0,0,0,0,0,0,0,0,0,0,0,0,0,0,0,0,0,0,0,0,0,0,0,0,0,0,0,0,0,0,0,0,0,0,0,0,0,0,0,0,0,0,0,0],"sum_hessian":[9.3510657E2,7.390096E1,8.612056E2,6.2739025E1,1.1161935E1,2.1612734E1,8.395929E2,4.6072044E1,1.6666979E1,8.573943E0,2.5879924E0,1.5850655E1,5.7620797E0,5.1438117E0,8.344491E2,3.5813675E1,1.02583685E1,1.2358909E0,1.5431088E1,5.396119E0,3.1778238E0,1.2357008E0,1.3522916E0,1.1109717E1,4.740937E0,1.7294159E0,4.032664E0,2.6795642E0,2.4642477E0,6.0202336E0,8.2842883E2,3.0646368E1,5.1673093E0,2.9421282E0,7.31624E0,9.190704E0,6.2403846E0,3.4324174E0,1.9637015E0,5.4069767E0,5.7027407E0,1.9971298E0,2.7438076E0,1.1369668E0,2.895697E0,1.4730626E0,1.2065016E0,1.2224333E0,1.2418143E0,4.7842507E0,1.235983E0,8.021959E0,8.204069E2,2.8189663E1,2.4567044E0,3.927756E0,1.2395532E0,2.916255E0,4.399985E0,4.5505776E0,4.640126E0,1.2116637E0,5.028721E0,1.9884487E0,1.4439688E0,1.1769358E0,4.230041E0,2.2162135E0,3.4865272E0,1.249515E0,1.4942925E0,2.538888E0,2.2453628E0,1.7422881E0,6.2796717E0,2.8014528E1,7.923924E2],"tree_param":{"num_deleted":"0","num_feature":"5","num_nodes":"77","size_leaf_vector":"1"}},{"base_weights":[4.5944747E-4,2.1290489E-2,-2.4748169E-2,-2.5768275E-4,1.7457606E-1,-8.241087E-1,-1.5884977E-2,5.7106027E-3,-5.9102094E-1,6.720819E-1,9.859737E-2,-3.339107E-1,-6.131413E-2,3.6774126E-1,-2.3625912E-2,1.4880687E-2,-2.1323903E-1,-2.755319E-1,-8.572177E-3,2.9075566E-1,-1.6599976E-1,5.6916505E-1,4.6110213E-2,1.0561034E-1,2.0963347E-1,-2.1526751E-1,-4.0535554E-3,-6.058281E-3,2.549724E-1,-5.490437E-1,4.400763E-2,-4.881932E-2,7.8610885E-1,-3.1649008E-1,1.11073114E-1,1.6984832E-1,-3.1665683E-1,1.2500615E-1,-3.4303662E-1,3.133499E-1,-2.1574887E-2,1.1610164E-4,-2.938383E-1,-9.193958E-2,1.086E-1,-5.9319157E-2,-3.0772966E-1,1.6679537E-1,-6.1584238E-2,3.1243977E-1,3.5887377E-3,1.4440754E-1,1.2847805E-2,-1.4900559E-1,-1.4891595E-2,-9.3646094E-2,2.1066247E-1,-3.6112405E-2,-1.9338042E-1,4.2134747E-2,1.8277282E-1,-2.202337E-1,-1.0650808E-3],"categories":[],"categories_nodes":[],"categories_segments":[],"categories_sizes":[],"default_left":[0,0,0,0,0,0,0,0,0,0,0,0,0,0,0,0,0,0,0,0,0,0,0,0,0,0,0,0,0,0,0,0,0,0,0,0,0,0,0,0,0,0,0,0,0,0,0,0,0,0,0,0,0,0,0,0,0,0,0,0,0,0,0],"id":15,"left_children":[1,3,5,7,9,11,13,15,17,19,21,-1,-1,23,25,27,29,-1,-1,-1,-1,31,33,35,-1,37,39,41,43,45,47,-1,49,-1,51,-1,53,55,57,59,61,-1,-1,-1,-1,-1,-1,-1,-1,-1,-1,-1,-1,-1,-1,-1,-1,-1,-1,-1,-1,-1,-1],"loss_changes":[4.9108133E-1,1.691348E0,2.98497E0,1.5897787E0,2.3193195E0,5.999112E-1,1.2545713E0,8.995016E-1,8.0423594E-1,3.5178375E0,1.3549497E0,0E0,0E0,6.5151787E-1,1.5451772E0,2.1603322E0,1.5800287E0,0E0,0E0,0E0,0E0,1.0049357E0,3.793646E0,1.315565E0,0E0,1.7026483E0,2.0923E0,2.4844875E0,2.182183E0,1.1180403E0,1.533908E0,0E0,8.6368537E-1,0E0,1.2287631E0,0E0,1.5269843E-1,3.0338035E0,1.8039813E0,9.2139757E-1,4.5737467E0,0E0,0E0,0E0,0E0,0E0,0E0,0E0,0E0,0E0,0E0,0E0,0E0,0E0,0E0,0E0,0E0,0E0,0E0,0E0,0E0,0E0,0E0],"parents":[2147483647,0,0,1,1,2,2,3,3,4,4,5,5,6,6,7,7,8,8,9,9,10,10,13,13,14,14,15,15,16,16,21,21,22,22,23,23,25,25,26,26,27,27,28,28,29,29,30,30,32,32,34,34,36,36,37,37,38,38,39,39,40,40],"right_children":[2,4,6,8,10,12,14,16,18,20,22,-1,-1,24,26,28,30,-1,-1,-1,-1,32,34,36,-1,38,40,42,44,46,48,-1,50,-1,52,-1,54,56,58,60,62,-1,-1,-1,-1,-1,-1,-1,-1,-1,-1,-1,-1,-1,-1,-1,-1,-1,-1,-1,-1,-1,-1],"split_conditions":[1.1431253E-2,1.0501642E-2,1.1491132E-2,1.0470191E-2,1.05875E-2,1.3739508E3,2.3531184E2,3.65315E3,1.00335E3,1.7587001E3,7.3709283E2,-3.339107E-1,-6.131413E-2,2.3175064E2,2.716648E2,2.0502E3,3.9597148E3,-2.755319E-1,-8.572177E-3,2.9075566E-1,-1.6599976E-1,1.0817634E-2,8.1645E2,1.714059E-2,2.0963347E-1,1.4138441E-2,7.3427606E2,2.0025588E3,5.775712E-3,3.8715635E3,3.9935293E3,-4.881932E-2,1.1167221E-2,-3.1649008E-1,1.0685255E3,1.6984832E-1,1.9655377E-2,2.4718083E2,2.5124683E2,1.8296046E-2,7.509022E2,1.1610164E-4,-2.938383E-1,-9.193958E-2,1.086E-1,-5.9319157E-2,-3.0772966E-1,1.6679537E-1,-6.1584238E-2,3.1243977E-1,3.5887377E-3,1.4440754E-1,1.2847805E-2,-1.4900559E-1,-1.4891595E-2,-9.3646094E-2,2.1066247E-1,-3.6112405E-2,-1.9338042E-1,4.2134747E-2,1.8277282E-1,-2.202337E-1,-1.0650808E-3],"split_indices":[4,4,4,4,4,1,3,1,2,1,3,0,0,2,2,2,3,0,0,0,0,4,1,4,0,4,2,1,4,1,2,0,4,0,2,0,4,3,1,4,3,0,0,0,0,0,0,0,0,0,0,0,0,0,0,0,0,0,0,0,0,0,0],"split_type":[0,0,0,0,0,0,0,0,0,0,0,0,0,0,0,0,0,0,0,0,0,0,0,0,0,0,0,0,0,0,0,0,0,0,0,0,0,0,0,0,0,0,0,0,0,0,0,0,0,0,0,0,0,0,0,0,0,0,0,0,0,0,0],"sum_hessian":[9.332098E2,5.1104684E2,4.221629E2,4.4893585E2,6.2110992E1,3.6208606E0,4.1854205E2,4.4542618E2,3.5096598E0,7.1893983E0,5.4921593E1,1.9266297E0,1.6942309E0,7.358581E0,4.1118347E2,4.2841525E2,1.7010921E1,1.8182578E0,1.6914021E0,5.954755E0,1.2346436E0,4.523427E0,5.0398167E1,4.8428273E0,2.5157537E0,3.7176212E1,3.7400726E2,3.9494586E2,3.34694E1,6.886766E0,1.0124156E1,1.091377E0,3.4320498E0,1.9587723E0,4.8439392E1,2.1534147E0,2.6894124E0,1.0154488E1,2.7021723E1,1.8682632E1,3.5532465E2,3.93341E2,1.604865E0,5.060414E0,2.8408983E1,4.779416E0,2.1073496E0,2.9124386E0,7.211717E0,2.3211088E0,1.1109409E0,6.596403E0,4.184299E1,1.0926262E0,1.596786E0,6.039501E0,4.1149864E0,1.6349298E1,1.0672425E1,1.2722867E1,5.9597645E0,7.786475E0,3.4753815E2],"tree_param":{"num_deleted":"0","num_feature":"5","num_nodes":"63","size_leaf_vector":"1"}},{"base_weights":[-6.123624E-4,-3.4253818E-3,2.1218517E-1,-4.890228E-4,-6.169863E-1,8.5029817E-1,-1.5492392E-1,-2.9730918E-3,3.7116504E-1,-2.66936E-1,-5.333728E-2,8.928723E-2,3.224742E-1,7.127241E-2,-1.7040998E-1,3.2337767E-4,-4.6275356E-1,-6.435258E-2,5.573447E-1,-1.2845331E-1,3.586193E-1,-2.0711978E-3,2.0464966E-1,-8.9977175E-1,1.9250987E-1,3.1379247E-1,4.3746922E-2,1.616557E-1,8.319515E-3,5.9768744E-4,-6.5062724E-2,-7.01199E-2,-3.267592E-1,-2.2982104E-2,4.275774E-2],"categories":[],"categories_nodes":[],"categories_segments":[],"categories_sizes":[],"default_left":[0,0,0,0,0,0,0,0,0,0,0,0,0,0,0,0,0,0,0,0,0,0,0,0,0,0,0,0,0,0,0,0,0,0,0],"id":16,"left_children":[1,3,5,7,9,11,13,15,17,-1,-1,-1,-1,19,-1,21,23,-1,25,-1,27,29,-1,31,-1,-1,33,-1,-1,-1,-1,-1,-1,-1,-1],"loss_changes":[5.5813414E-1,1.6572288E0,2.981413E0,8.4735256E-1,3.6672843E-1,2.507131E-1,8.41116E-1,1.3817265E0,7.84035E-1,0E0,0E0,0E0,0E0,1.0756472E0,0E0,1.4807409E0,3.7096944E0,0E0,1.1844156E0,0E0,2.6074344E-1,7.893857E-1,0E0,3.845744E-1,0E0,0E0,5.173778E-2,0E0,0E0,0E0,0E0,0E0,0E0,0E0,0E0],"parents":[2147483647,0,0,1,1,2,2,3,3,4,4,5,5,6,6,7,7,8,8,13,13,15,15,16,16,18,18,20,20,21,21,23,23,26,26],"right_children":[2,4,6,8,10,12,14,16,18,-1,-1,-1,-1,20,-1,22,24,-1,26,-1,28,30,-1,32,-1,-1,34,-1,-1,-1,-1,-1,-1,-1,-1],"split_conditions":[4.0396396E3,3.9935293E3,4.0914592E3,3.9597148E3,8.756425E-3,1.0983352E-2,1.1628382E-2,3.8715635E3,7.11009E-3,-2.66936E-1,-5.333728E-2,8.928723E-2,3.224742E-1,6.919264E-3,-1.7040998E-1,3.868516E3,1.8903637E-2,-6.435258E-2,9.1104945E-3,-1.2845331E-1,8.639338E-3,3.621825E3,2.0464966E-1,3.868516E3,1.9250987E-1,3.1379247E-1,1.3028929E-2,1.616557E-1,8.319515E-3,5.9768744E-4,-6.5062724E-2,-7.01199E-2,-3.267592E-1,-2.2982104E-2,4.275774E-2],"split_indices":[2,2,2,3,4,4,4,1,4,0,0,0,0,4,0,3,4,0,4,0,4,1,0,3,0,0,4,0,0,0,0,0,0,0,0],"split_type":[0,0,0,0,0,0,0,0,0,0,0,0,0,0,0,0,0,0,0,0,0,0,0,0,0,0,0,0,0,0,0,0,0,0,0],"sum_hessian":[9.301793E2,9.190146E2,1.1164762E1,9.1563336E2,3.3812103E0,3.596714E0,7.568047E0,9.105395E2,5.0938816E0,1.4528465E0,1.9283638E0,1.711226E0,1.885488E0,5.425054E0,2.1429932E0,9.0504987E2,5.4896026E0,1.1919987E0,3.9018831E0,1.8022968E0,3.6227574E0,9.0287604E2,2.1738667E0,4.066044E0,1.4235587E0,1.4683498E0,2.4335332E0,1.9384091E0,1.6843483E0,8.8708563E2,1.5790404E1,1.3949982E0,2.6710458E0,1.198148E0,1.2353852E0],"tree_param":{"num_deleted":"0","num_feature":"5","num_nodes":"35","size_leaf_vector":"1"}},{"base_weights":[-2.9504346E-4,1.0221284E-1,-5.650013E-3,-3.6981132E-2,4.2260256E-1,-7.2043375E-3,3.3737633E-1,1.667093E-1,-2.0632103E-1,7.3851144E-1,2.4784024E-1,1.6919125E-2,-2.6459282E-2,1.5834658E-1,-8.791762E-3,-4.8585227E-3,5.713779E-1,-5.0706315E-1,-4.5291096E-2,9.483038E-2,2.7343008E-1,-4.189863E-1,5.532986E-1,-1.5761935E-3,5.9505373E-1,4.9734178E-1,-3.3239752E-2,1.2228749E-1,-1.1852848E-1,6.6810206E-2,2.0793147E-1,3.961625E-2,-2.6676634E-1,3.2919267E-1,-3.2826418E-1,-2.2097954E-1,7.371733E-4,2.8014836E-1,2.8343293E-1,6.7372345E-3,-6.310668E-1,1.0038495E0,-2.866344E-1,-8.0569535E-2,8.4116703E-1,-3.9491722E-1,-1.1228756E-2,-1.0623362E-1,9.87561E-2,-1.4565364E-1,1.5410346E-1,1.5292011E-1,2.7251152E-2,-2.583248E-1,-1.5382494E-2,1.9046964E-1,-9.8630734E-2,-9.0794504E-4,2.4695344E-1,6.67513E-2,-2.9242638E-1,-5.138507E-2,3.6795893E-1,8.004768E-2,-2.348297E-1,3.5665178E-1,4.228995E-2,2.8052993E-2,-1.3992071E-1,-3.1129431E-2,4.86348E-3],"categories":[],"categories_nodes":[],"categories_segments":[],"categories_sizes":[],"default_left":[0,0,0,0,0,0,0,0,0,0,0,0,0,0,0,0,0,0,0,0,0,0,0,0,0,0,0,0,0,0,0,0,0,0,0,0,0,0,0,0,0,0,0,0,0,0,0,0,0,0,0,0,0,0,0,0,0,0,0,0,0,0,0,0,0,0,0,0,0,0,0],"id":17,"left_children":[1,3,5,7,9,11,13,15,17,19,21,23,25,-1,-1,27,29,31,33,-1,-1,35,37,39,41,43,45,47,-1,-1,-1,49,-1,51,53,-1,-1,55,-1,57,59,61,63,-1,65,67,69,-1,-1,-1,-1,-1,-1,-1,-1,-1,-1,-1,-1,-1,-1,-1,-1,-1,-1,-1,-1,-1,-1,-1,-1],"loss_changes":[5.1111466E-1,2.0771577E0,4.7420344E-1,1.1776769E0,5.9436774E-1,4.1005215E-1,2.9565296E-1,1.0858333E0,8.7517464E-1,4.1333914E-2,2.38499E0,4.1929107E0,1.7596233E0,0E0,0E0,6.410712E-1,4.3136954E-2,1.365869E0,1.5043596E0,0E0,0E0,5.225198E-1,5.5665064E-1,1.9974924E0,4.6690106E0,1.8940458E0,3.8602042E0,1.0800009E0,0E0,0E0,0E0,1.1400853E0,0E0,2.1923327E-1,1.1374075E0,0E0,0E0,1.4930782E0,0E0,3.007003E0,1.6764072E0,2.4414577E0,1.4798027E0,0E0,9.5563793E-1,1.014945E0,1.1662551E0,0E0,0E0,0E0,0E0,0E0,0E0,0E0,0E0,0E0,0E0,0E0,0E0,0E0,0E0,0E0,0E0,0E0,0E0,0E0,0E0,0E0,0E0,0E0,0E0],"parents":[2147483647,0,0,1,1,2,2,3,3,4,4,5,5,6,6,7,7,8,8,9,9,10,10,11,11,12,12,15,15,16,16,17,17,18,18,21,21,22,22,23,23,24,24,25,25,26,26,27,27,31,31,33,33,34,34,37,37,39,39,40,40,41,41,42,42,44,44,45,45,46,46],"right_children":[2,4,6,8,10,12,14,16,18,20,22,24,26,-1,-1,28,30,32,34,-1,-1,36,38,40,42,44,46,48,-1,-1,-1,50,-1,52,54,-1,-1,56,-1,58,60,62,64,-1,66,68,70,-1,-1,-1,-1,-1,-1,-1,-1,-1,-1,-1,-1,-1,-1,-1,-1,-1,-1,-1,-1,-1,-1,-1,-1],"split_conditions":[4.5883786E-3,4.1195964E-3,4.5652628E-2,3.0787576E-3,1.00335E3,1.24328E3,1.171199E3,1.4226425E3,1.0104864E3,9.50125E2,1.24328E3,1.2395356E3,1.2324468E3,1.5834658E-1,-8.791762E-3,1.3870227E3,2.5006877E-3,7.97002E2,1.43038E3,9.483038E-2,2.7343008E-1,4.3574492E-3,4.4707553E-3,1.230137E3,1.6511025E-2,1.2130632E3,1.27962E3,2.0615526E-3,-1.1852848E-1,6.6810206E-2,2.0793147E-1,2.5891544E2,-2.6676634E-1,3.6546248E-3,1.5394058E3,-2.2097954E-1,7.371733E-4,4.3574492E-3,2.8343293E-1,1.2194397E3,1.2130632E3,1.2296987E3,1.2194397E3,-8.0569535E-2,1.24768E3,6.6793915E-3,7.883216E-3,-1.0623362E-1,9.87561E-2,-1.4565364E-1,1.5410346E-1,1.5292011E-1,2.7251152E-2,-2.583248E-1,-1.5382494E-2,1.9046964E-1,-9.8630734E-2,-9.0794504E-4,2.4695344E-1,6.67513E-2,-2.9242638E-1,-5.138507E-2,3.6795893E-1,8.004768E-2,-2.348297E-1,3.5665178E-1,4.228995E-2,2.8052993E-2,-1.3992071E-1,-3.1129431E-2,4.86348E-3],"split_indices":[4,4,4,4,2,3,1,2,1,3,3,1,1,0,0,3,4,1,3,0,0,4,4,3,4,1,2,4,0,0,0,1,0,4,3,0,0,4,0,3,1,2,3,0,2,4,4,0,0,0,0,0,0,0,0,0,0,0,0,0,0,0,0,0,0,0,0,0,0,0,0],"split_type":[0,0,0,0,0,0,0,0,0,0,0,0,0,0,0,0,0,0,0,0,0,0,0,0,0,0,0,0,0,0,0,0,0,0,0,0,0,0,0,0,0,0,0,0,0,0,0,0,0,0,0,0,0,0,0,0,0,0,0,0,0,0,0,0,0,0,0,0,0,0,0],"sum_hessian":[9.2906445E2,4.5226448E1,8.83838E2,3.2145393E1,1.3081058E1,8.808258E2,3.01221E0,1.4599692E1,1.75457E1,3.5101442E0,9.570913E0,3.910376E2,4.8978818E2,1.6932993E0,1.3189106E0,1.09466305E1,3.653062E0,5.3692074E0,1.2176493E1,1.8409966E0,1.6691475E0,2.8900867E0,6.6808267E0,3.7988193E2,1.1155669E1,5.3345847E0,4.844536E2,8.774405E0,2.172226E0,1.6775018E0,1.9755603E0,2.5778756E0,2.7913315E0,5.1705294E0,7.005963E0,1.221631E0,1.6684556E0,4.945656E0,1.735171E0,3.7590677E2,3.9751513E0,7.5271454E0,3.6285243E0,1.720618E0,3.6139667E0,2.6819675E1,4.5763394E2,2.4414012E0,6.333003E0,1.2116036E0,1.366272E0,2.2942324E0,2.8762972E0,1.6750675E0,5.3308954E0,3.0980744E0,1.8475814E0,3.72449E2,3.4577796E0,1.242333E0,2.7328184E0,1.2358893E0,6.291256E0,1.9336385E0,1.694886E0,1.9485792E0,1.6653875E0,3.3847861E0,2.3434889E1,1.0403143E2,3.536025E2],"tree_param":{"num_deleted":"0","num_feature":"5","num_nodes":"71","size_leaf_vector":"1"}},{"base_weights":[8.3711016E-4,5.5776726E-2,-7.855757E-3,-4.054557E-3,2.0807172E-1,-4.285275E-1,2.716548E-4,3.8115874E-2,-3.0091536E-1,6.75544E-2,5.898329E-1,-1.2625241E-1,-3.3492422E-1,1.2322773E-2,-6.8584435E-2,1.240441E-2,2.5053635E-1,1.3125558E-1,-1.9146274E-1,-3.5483964E-2,7.341772E-1,1.1441508E-1,-5.806412E-1,5.831759E-3,6.8224126E-1,-5.5571634E-1,-4.365227E-3,7.964431E-2,-2.5430432E-1,2.6763007E-1,-1.258956E-1,3.2801664E-1,4.6675774E-1,-2.7482787E-1,3.1704378E-1,-2.2935522E-1,-1.94013E-2,8.66795E-3,-4.6741202E-1,-5.6908328E-2,9.2363334E-1,1.4228036E-1,-1.14779E0,-2.723768E-1,4.9510892E-2,4.3620076E-3,3.293901E-1,-2.7712074E-1,-1.1515745E-2,3.986883E-2,2.5388783E-1,8.332163E-2,-2.015624E-1,-1.20878406E-1,2.4546523E-1,8.41078E-2,-2.2677493E-1,6.110375E-4,1.0844431E-1,-7.4734604E-3,-2.1722715E-1,3.2734084E-1,6.474541E-2,-8.812791E-2,2.2779633E-1,-3.9029688E-1,-9.451405E-2,8.9670174E-2,-1.8720126E-1,9.9816E-2,-2.1005028E-3],"categories":[],"categories_nodes":[],"categories_segments":[],"categories_sizes":[],"default_left":[0,0,0,0,0,0,0,0,0,0,0,0,0,0,0,0,0,0,0,0,0,0,0,0,0,0,0,0,0,0,0,0,0,0,0,0,0,0,0,0,0,0,0,0,0,0,0,0,0,0,0,0,0,0,0,0,0,0,0,0,0,0,0,0,0,0,0,0,0,0,0],"id":18,"left_children":[1,3,5,7,9,11,13,15,-1,17,19,21,-1,23,25,27,-1,29,-1,-1,31,33,35,37,39,41,43,45,47,49,51,-1,53,55,-1,-1,-1,57,59,-1,61,63,65,67,69,-1,-1,-1,-1,-1,-1,-1,-1,-1,-1,-1,-1,-1,-1,-1,-1,-1,-1,-1,-1,-1,-1,-1,-1,-1,-1],"loss_changes":[4.434656E-1,1.1566976E0,2.741434E0,3.9162054E0,1.8804866E0,3.0191395E0,6.5438837E-1,1.8193237E0,0E0,1.3109308E0,1.058047E0,1.3443463E0,0E0,2.9144104E0,3.672256E0,1.5896404E0,0E0,9.407663E-1,0E0,0E0,2.6118135E-1,3.3992038E0,3.5006225E-1,8.975621E-1,1.5289538E0,5.814272E0,1.5266073E0,4.668118E0,2.545897E0,1.2302402E0,2.311832E0,0E0,2.2703128E0,2.0258317E0,0E0,0E0,0E0,1.54973E0,4.344707E-1,0E0,3.8193226E-1,2.1509187E0,5.480461E-1,3.74068E0,1.4123225E0,0E0,0E0,0E0,0E0,0E0,0E0,0E0,0E0,0E0,0E0,0E0,0E0,0E0,0E0,0E0,0E0,0E0,0E0,0E0,0E0,0E0,0E0,0E0,0E0,0E0,0E0],"parents":[2147483647,0,0,1,1,2,2,3,3,4,4,5,5,6,6,7,7,9,9,10,10,11,11,13,13,14,14,15,15,17,17,20,20,21,21,22,22,23,23,24,24,25,25,26,26,27,27,28,28,29,29,30,30,32,32,33,33,37,37,38,38,40,40,41,41,42,42,43,43,44,44],"right_children":[2,4,6,8,10,12,14,16,-1,18,20,22,-1,24,26,28,-1,30,-1,-1,32,34,36,38,40,42,44,46,48,50,52,-1,54,56,-1,-1,-1,58,60,-1,62,64,66,68,70,-1,-1,-1,-1,-1,-1,-1,-1,-1,-1,-1,-1,-1,-1,-1,-1,-1,-1,-1,-1,-1,-1,-1,-1,-1,-1],"split_conditions":[6.269321E-3,1.477836E3,6.4490056E-3,1.4666945E3,5.775712E-3,6.412761E-3,1.8489321E3,1.459324E3,-3.0091536E-1,5.71182E-3,1.5273883E3,1.435547E3,-3.3492422E-1,1.8283899E3,1.8922E3,1.3827949E3,2.5053635E-1,1.9102E3,-1.9146274E-1,-3.5483964E-2,1.6268923E3,1.1374495E3,1.819474E3,1.819474E3,1.8227487E3,1.1954071E-2,8.075682E-3,1.3715E3,1.3954426E3,1.859356E3,4.8621697E-3,3.2801664E-1,1.8407118E3,7.998396E2,3.1704378E-1,-2.2935522E-1,-1.94013E-2,1.7821376E3,1.8400062E3,-5.6908328E-2,1.4746236E-2,1.0470191E-2,1.8649092E3,6.919264E-3,9.1104945E-3,4.3620076E-3,3.293901E-1,-2.7712074E-1,-1.1515745E-2,3.986883E-2,2.5388783E-1,8.332163E-2,-2.015624E-1,-1.20878406E-1,2.4546523E-1,8.41078E-2,-2.2677493E-1,6.110375E-4,1.0844431E-1,-7.4734604E-3,-2.1722715E-1,3.2734084E-1,6.474541E-2,-8.812791E-2,2.2779633E-1,-3.9029688E-1,-9.451405E-2,8.9670174E-2,-1.8720126E-1,9.9816E-2,-2.1005028E-3],"split_indices":[4,2,4,1,4,4,1,1,0,4,3,3,0,1,3,3,0,2,0,0,1,1,1,1,2,4,4,1,1,1,4,0,1,1,0,0,0,3,2,0,4,4,3,4,4,0,0,0,0,0,0,0,0,0,0,0,0,0,0,0,0,0,0,0,0,0,0,0,0,0,0],"split_type":[0,0,0,0,0,0,0,0,0,0,0,0,0,0,0,0,0,0,0,0,0,0,0,0,0,0,0,0,0,0,0,0,0,0,0,0,0,0,0,0,0,0,0,0,0,0,0,0,0,0,0,0,0,0,0,0,0,0,0,0,0,0,0,0,0,0,0,0,0,0,0],"sum_hessian":[9.266454E2,1.2584958E2,8.007958E2,9.10519E1,3.4797672E1,1.4197782E1,7.86598E2,8.828691E1,2.7649908E0,2.629577E1,8.501902E0,1.0685732E1,3.5120497E0,6.7013306E2,1.1646493E2,8.6511604E1,1.7753084E0,2.4865473E1,1.430298E0,1.4701803E0,7.0317216E0,7.474863E0,3.2108688E0,6.647013E2,5.431758E0,1.2673935E1,1.0379099E2,6.9652824E1,1.685878E1,1.622183E1,8.643643E0,1.6827284E0,5.3489933E0,5.7912493E0,1.6836139E0,2.0121067E0,1.198762E0,6.617173E2,2.9840438E0,1.2241507E0,4.2076073E0,6.165319E0,6.508616E0,1.669326E1,8.709773E1,6.642064E1,3.2321827E0,3.3120298E0,1.3546751E1,1.4155556E1,2.0662742E0,5.252125E0,3.391518E0,1.4973541E0,3.8516393E0,2.882276E0,2.908973E0,6.504969E2,1.1220383E1,1.4982283E0,1.4858155E0,2.964509E0,1.2430983E0,3.9194846E0,2.2458344E0,5.0223594E0,1.4862566E0,6.417276E0,1.0275985E1,1.3675635E1,7.34221E1],"tree_param":{"num_deleted":"0","num_feature":"5","num_nodes":"71","size_leaf_vector":"1"}},{"base_weights":[2.585128E-4,-2.1880534E-3,1.8862268E-1,1.9612403E-4,-5.2349496E-1,7.173465E-1,-1.0964296E-1,-1.9639586E-3,3.2722953E-1,-2.34474E-1,-4.355835E-2,7.240815E-2,2.7808756E-1,7.897054E-2,-1.3952959E-1,6.17277E-4,-3.8418135E-1,2.1270569E-1,1.2225326E-2,-1.15209274E-1,3.411884E-1,-2.063337E-3,5.232099E-1,-7.686608E-1,1.6202661E-1,-9.087507E-2,1.0861937E-1,1.5585029E-1,6.2246956E-3,2.411084E-4,-9.6451975E-2,2.1867724E-1,8.820055E-3,-4.884586E-2,-2.8905144E-1],"categories":[],"categories_nodes":[],"categories_segments":[],"categories_sizes":[],"default_left":[0,0,0,0,0,0,0,0,0,0,0,0,0,0,0,0,0,0,0,0,0,0,0,0,0,0,0,0,0,0,0,0,0,0,0],"id":19,"left_children":[1,3,5,7,9,11,13,15,17,-1,-1,-1,-1,19,-1,21,23,-1,25,-1,27,29,31,33,-1,-1,-1,-1,-1,-1,-1,-1,-1,-1,-1],"loss_changes":[4.2671552E-1,1.1363173E0,1.9509234E0,6.4419794E-1,2.92897E-1,2.1671557E-1,6.0377395E-1,8.9411676E-1,7.1097296E-1,0E0,0E0,0E0,0E0,9.056772E-1,0E0,1.263189E0,2.5754828E0,0E0,5.833275E-1,0E0,2.5223446E-1,8.2209593E-1,4.460281E-1,3.986385E-1,0E0,0E0,0E0,0E0,0E0,0E0,0E0,0E0,0E0,0E0,0E0],"parents":[2147483647,0,0,1,1,2,2,3,3,4,4,5,5,6,6,7,7,8,8,13,13,15,15,16,16,18,18,20,20,21,21,22,22,23,23],"right_children":[2,4,6,8,10,12,14,16,18,-1,-1,-1,-1,20,-1,22,24,-1,26,-1,28,30,32,34,-1,-1,-1,-1,-1,-1,-1,-1,-1,-1,-1],"split_conditions":[4.0396396E3,3.9935293E3,4.0914592E3,3.9597148E3,8.756425E-3,1.0983352E-2,1.1628382E-2,3.8715635E3,3.9166665E3,-2.34474E-1,-4.355835E-2,7.240815E-2,2.7808756E-1,6.919264E-3,-1.3952959E-1,3.8329258E3,1.8903637E-2,2.1270569E-1,1.1913814E-2,-1.15209274E-1,8.639338E-3,3.713918E3,1.4068948E-2,3.868516E3,1.6202661E-1,-9.087507E-2,1.0861937E-1,1.5585029E-1,6.2246956E-3,2.411084E-4,-9.6451975E-2,2.1867724E-1,8.820055E-3,-4.884586E-2,-2.8905144E-1],"split_indices":[2,2,2,3,4,4,4,1,1,0,0,0,0,4,0,1,4,0,4,0,4,1,4,3,0,0,0,0,0,0,0,0,0,0,0],"split_type":[0,0,0,0,0,0,0,0,0,0,0,0,0,0,0,0,0,0,0,0,0,0,0,0,0,0,0,0,0,0,0,0,0,0,0],"sum_hessian":[9.240451E2,9.131727E2,1.0872352E1,9.1001044E2,3.1622748E0,3.4145153E0,7.4578366E0,9.050267E2,4.9837813E0,1.2461166E0,1.9161582E0,1.7017199E0,1.7127955E0,5.3805943E0,2.0772426E0,8.9994745E2,5.0792465E0,1.6875833E0,3.2961981E0,1.7774966E0,3.6030974E0,8.963457E2,3.6017108E0,3.7059839E0,1.3732624E0,1.8046545E0,1.4915437E0,1.9158076E0,1.68729E0,8.893611E2,6.9846115E0,2.2064228E0,1.395288E0,1.3485352E0,2.3574486E0],"tree_param":{"num_deleted":"0","num_feature":"5","num_nodes":"35","size_leaf_vector":"1"}},{"base_weights":[3.198129E-4,1.6411535E-1,-1.9673344E-3,-4.181707E-2,7.18942E-1,-4.180723E-1,1.3543853E-4,-2.527693E-1,1.9291738E-1,2.489994E-1,6.660269E-2,-1.9405714E-1,3.5777096E-2,2.0553727E-1,-1.9455078E-3,2.2256117E-1,-5.03519E-1,-1.5464371E-1,2.8090028E-3,1.5440722E-1,-6.769326E-2,-5.954225E-1,-2.959988E-2,1.01662055E-1,-3.2648513E-1,1.6048805E-1,7.446926E-4,-6.418556E-2,-2.7590713E-1,-5.8704756E-2,2.0529415E-1,-4.399692E-2,-2.711859E-1,-3.492749E-4,1.3763969E-1],"categories":[],"categories_nodes":[],"categories_segments":[],"categories_sizes":[],"default_left":[0,0,0,0,0,0,0,0,0,0,0,0,0,0,0,0,0,0,0,0,0,0,0,0,0,0,0,0,0,0,0,0,0,0,0],"id":20,"left_children":[1,3,5,7,9,11,13,15,-1,-1,-1,-1,-1,-1,17,19,21,23,25,-1,-1,27,-1,29,31,-1,33,-1,-1,-1,-1,-1,-1,-1,-1],"loss_changes":[3.4646365E-1,1.48523E0,7.9823565E-1,1.6410289E0,9.026766E-3,6.410442E-1,1.2965373E0,1.1301122E0,0E0,0E0,0E0,0E0,0E0,0E0,6.588409E-1,5.931618E-1,1.6070926E-1,1.2401127E0,9.668383E-1,0E0,0E0,3.732816E-1,0E0,2.1714652E0,1.5955981E0,0E0,7.6833147E-1,0E0,0E0,0E0,0E0,0E0,0E0,0E0,0E0],"parents":[2147483647,0,0,1,1,2,2,3,3,4,4,5,5,6,6,7,7,14,14,15,15,16,16,17,17,18,18,21,21,23,23,24,24,26,26],"right_children":[2,4,6,8,10,12,14,16,-1,-1,-1,-1,-1,-1,18,20,22,24,26,-1,-1,28,-1,30,32,-1,34,-1,-1,-1,-1,-1,-1,-1,-1],"split_conditions":[2.3193637E2,2.2920761E2,2.3439702E2,1.8903637E-2,1.714059E-2,2.3906883E2,2.3507762E2,2.155084E2,1.9291738E-1,2.489994E-1,6.660269E-2,-1.9405714E-1,3.5777096E-2,2.0553727E-1,2.4761713E2,2.1607085E2,1.1491132E-2,1.112195E-2,2.4339221E2,1.5440722E-1,-6.769326E-2,8.330816E-3,-2.959988E-2,8.970062E-3,2.4507768E2,1.6048805E-1,4.5652628E-2,-6.418556E-2,-2.7590713E-1,-5.8704756E-2,2.0529415E-1,-4.399692E-2,-2.711859E-1,-3.492749E-4,1.3763969E-1],"split_indices":[1,1,1,4,4,3,2,2,0,0,0,0,0,0,1,1,4,4,3,0,0,4,0,4,1,0,4,0,0,0,0,0,0,0,0],"split_type":[0,0,0,0,0,0,0,0,0,0,0,0,0,0,0,0,0,0,0,0,0,0,0,0,0,0,0,0,0,0,0,0,0,0,0],"sum_hessian":[9.229673E2,1.1735926E1,9.112314E2,9.233427E0,2.502498E0,3.5870762E0,9.076443E2,7.5414643E0,1.691963E0,1.4975746E0,1.0049235E0,2.3729017E0,1.2141747E0,1.7548666E0,9.058894E2,2.643246E0,4.898218E0,2.6402666E1,8.7948676E2,1.5104403E0,1.1328057E0,3.6083841E0,1.2898341E0,1.0760904E1,1.5641763E1,2.4009745E0,8.7708575E2,2.420589E0,1.1877952E0,7.56461E0,3.1962943E0,1.2883644E1,2.758119E0,8.74439E2,2.6467688E0],"tree_param":{"num_deleted":"0","num_feature":"5","num_nodes":"35","size_leaf_vector":"1"}},{"base_weights":[7.140689E-4,7.4254023E-3,-5.5594623E-2,1.0764716E-3,3.4581348E-1,1.4048131E-1,-1.2927803E-1,3.6412773E-3,-2.4263926E-1,5.013926E-1,-1.2099788E-1,-1.98118E-1,4.292554E-1,-2.5149125E-1,-8.771786E-2,-1.1896108E-3,3.311542E-1,5.527078E-2,-2.45744E-1,3.663763E-2,1.0165368E0,-2.314092E-1,3.3691207E-1,3.989446E-1,-3.5137606E-1,6.147702E-1,1.2272651E-1,-2.1125625E-1,-5.943637E-2,3.2887699E-3,-2.228887E-1,9.067552E-2,2.8482327E-1,-1.4514071E-1,4.3918288E-1,3.1310737E-1,-2.1737312E-1,3.6416852E-1,1.4339475E-1,2.6348338E-3,1.5327868E-1,-1.1476858E-2,1.9925955E-1,-2.3699506E-1,-4.8163194E-2,3.7635168E-1,2.0256074E-1,-2.5348675E-1,2.8562924E-1,1.9987188E-1,-8.275163E-2,-1.4478788E-3,8.277618E-2,3.665797E-2,-1.6537781E-1,1.3834618E-1,-3.0002737E-1,2.8079286E-1,-3.474656E-2,1.6232777E-1,1.6055021E-2,1.6075747E-1,-1.8162252E-1,-1.1509738E-1,1.5809757E-1,-2.088462E-1,5.6816284E-2,-2.5027484E-1,-1.4937499E-2],"categories":[],"categories_nodes":[],"categories_segments":[],"categories_sizes":[],"default_left":[0,0,0,0,0,0,0,0,0,0,0,0,0,0,0,0,0,0,0,0,0,0,0,0,0,0,0,0,0,0,0,0,0,0,0,0,0,0,0,0,0,0,0,0,0,0,0,0,0,0,0,0,0,0,0,0,0,0,0,0,0,0,0,0,0,0,0,0,0],"id":21,"left_children":[1,3,5,7,9,11,13,15,17,19,21,23,25,-1,27,29,31,33,-1,35,37,-1,39,41,43,45,47,-1,49,51,53,55,-1,-1,57,59,-1,-1,-1,-1,-1,-1,-1,-1,61,-1,63,65,-1,-1,67,-1,-1,-1,-1,-1,-1,-1,-1,-1,-1,-1,-1,-1,-1,-1,-1,-1,-1],"loss_changes":[3.491487E-1,1.7729568E0,1.4396945E0,5.0796324E-1,1.1644659E0,2.7597523E0,2.049228E0,1.2720796E0,1.4987648E0,2.7384582E0,1.6312133E0,1.354934E0,7.820504E-1,0E0,1.1640348E0,7.881343E-1,1.651481E0,1.5611016E0,0E0,1.7278827E0,2.5510788E-4,0E0,1.8954912E-1,3.9417762E-1,1.437552E0,2.1573622E0,2.4051397E0,0E0,1.1925237E0,1.72337E0,1.8483908E0,4.3081446E0,0E0,0E0,1.3023219E0,3.2201475E-1,0E0,0E0,0E0,0E0,0E0,0E0,0E0,0E0,2.8059838E0,0E0,1.486674E0,1.2219498E0,0E0,0E0,1.5937653E0,0E0,0E0,0E0,0E0,0E0,0E0,0E0,0E0,0E0,0E0,0E0,0E0,0E0,0E0,0E0,0E0,0E0,0E0],"parents":[2147483647,0,0,1,1,2,2,3,3,4,4,5,5,6,6,7,7,8,8,9,9,10,10,11,11,12,12,14,14,15,15,16,16,17,17,19,19,20,20,22,22,23,23,24,24,25,25,26,26,28,28,29,29,30,30,31,31,34,34,35,35,44,44,46,46,47,47,50,50],"right_children":[2,4,6,8,10,12,14,16,18,20,22,24,26,-1,28,30,32,34,-1,36,38,-1,40,42,44,46,48,-1,50,52,54,56,-1,-1,58,60,-1,-1,-1,-1,-1,-1,-1,-1,62,-1,64,66,-1,-1,68,-1,-1,-1,-1,-1,-1,-1,-1,-1,-1,-1,-1,-1,-1,-1,-1,-1,-1],"split_conditions":[1.9655377E-2,1.8903637E-2,8.138986E2,1.8606935E-2,1.5385815E3,2.586101E2,1.987788E-2,1.8125102E-2,1.7135875E3,1.260871E3,1.6091643E3,2.3193637E2,7.6709705E2,-2.5149125E-1,8.458763E2,1.7416816E-2,1.5317438E3,8.5695E2,-2.45744E-1,1.1848723E3,1.4247068E3,-2.314092E-1,1.9287698E-2,2.3875767E-2,2.3443E-2,2.1323305E-2,7.9742E2,-2.1125625E-1,9.572E2,1.6699493E-2,1.4632593E3,1.4182456E3,2.8482327E-1,-1.4514071E-1,1.24851E3,7.383738E2,-2.1737312E-1,3.6416852E-1,1.4339475E-1,2.6348338E-3,1.5327868E-1,-1.1476858E-2,1.9925955E-1,-2.3699506E-1,2.7237432E-2,3.7635168E-1,2.5214532E-2,2.1323305E-2,2.8562924E-1,1.9987188E-1,9.946E2,-1.4478788E-3,8.277618E-2,3.665797E-2,-1.6537781E-1,1.3834618E-1,-3.0002737E-1,2.8079286E-1,-3.474656E-2,1.6232777E-1,1.6055021E-2,1.6075747E-1,-1.8162252E-1,-1.1509738E-1,1.5809757E-1,-2.088462E-1,5.6816284E-2,-2.5027484E-1,-1.4937499E-2],"split_indices":[4,4,1,4,1,3,4,4,1,1,2,1,1,0,2,4,2,1,0,1,1,0,4,4,4,4,2,0,1,4,2,3,0,0,3,1,0,0,0,0,0,0,0,0,4,0,4,4,0,0,1,0,0,0,0,0,0,0,0,0,0,0,0,0,0,0,0,0,0],"split_type":[0,0,0,0,0,0,0,0,0,0,0,0,0,0,0,0,0,0,0,0,0,0,0,0,0,0,0,0,0,0,0,0,0,0,0,0,0,0,0,0,0,0,0,0,0,0,0,0,0,0,0,0,0,0,0,0,0,0,0,0,0,0,0,0,0,0,0,0,0],"sum_hessian":[9.218103E2,8.2441754E2,9.739274E1,8.102192E2,1.4198374E1,2.635472E1,7.103802E1,8.027562E2,7.4629536E0,1.059364E1,3.6047337E0,1.2275331E1,1.4079388E1,2.8718998E0,6.816612E1,7.920694E2,1.06868305E1,5.516455E0,1.9464985E0,6.1322985E0,4.461342E0,1.206549E0,2.3981845E0,2.179877E0,1.0095453E1,8.144598E0,5.9347906E0,1.9417318E0,6.622439E1,7.773518E2,1.4717549E1,8.519664E0,2.167167E0,2.186323E0,3.3301322E0,4.9303074E0,1.2019913E0,2.3472004E0,2.1141415E0,1.1951187E0,1.203066E0,1.1462924E0,1.0335845E0,3.4702485E0,6.625205E0,2.3907948E0,5.753803E0,4.560467E0,1.3743236E0,1.2031046E0,6.5021286E1,7.5583624E2,2.1515574E1,7.4823217E0,7.2352276E0,6.790496E0,1.7291682E0,1.3950089E0,1.9351232E0,2.047599E0,2.882708E0,3.2536223E0,3.3715827E0,1.9848309E0,3.768972E0,1.9947503E0,2.5657167E0,1.710494E0,6.331079E1],"tree_param":{"num_deleted":"0","num_feature":"5","num_nodes":"69","size_leaf_vector":"1"}},{"base_weights":[9.4226067E-4,1.8863505E-2,-2.2978894E-2,1.07165985E-2,2.9091516E-1,-4.244417E-1,-1.0812657E-2,1.8174656E-2,-4.2127293E-1,7.4039435E-1,-1.2114123E-1,-2.5571194E-1,-2.7020213E-1,4.842279E-1,-2.1620847E-2,6.3190865E-3,1.866933E-1,-1.3490914E-1,-7.407435E-1,3.4846893E-1,3.863576E-1,-3.1114116E-1,3.4460512E-1,-4.7044036E-1,7.369768E-2,1.6346246E-1,1.8133494E-1,-7.61075E-2,2.4453428E-2,1.2723284E-2,-6.4868665E-1,-1.1373529E-1,4.0864736E-1,-6.828439E-1,3.198161E-1,-2.673274E-1,-6.363452E-2,8.5549664E-1,-1.5364116E-1,3.0262744E-1,-2.2544552E-1,-9.453174E-3,-6.2139535E-1,1.8509132E-1,-2.8459007E-1,9.0901256E-2,-1.8505849E-2,-3.8413703E-2,-4.606607E-1,5.7694566E-1,-9.710631E-3,6.853511E-4,5.706805E-2,-2.9699203E-1,-3.57864E-2,1.9816399E-1,-1.2829728E-1,4.389361E-1,4.356638E-2,4.715122E-2,-3.0361885E-1,2.1168014E-2,3.3852416E-1,-1.3323484E-1,2.4665324E-2,-2.6658952E-1,-7.9422176E-2,-1.8174438E-1,5.7222355E-2,-2.1269862E-2,1.0805072E-1,-1.8796095E-1,2.2267585E-1,7.1852263E-3,2.919589E-1,-1.5006944E-2,4.9139183E-2],"categories":[],"categories_nodes":[],"categories_segments":[],"categories_sizes":[],"default_left":[0,0,0,0,0,0,0,0,0,0,0,0,0,0,0,0,0,0,0,0,0,0,0,0,0,0,0,0,0,0,0,0,0,0,0,0,0,0,0,0,0,0,0,0,0,0,0,0,0,0,0,0,0,0,0,0,0,0,0,0,0,0,0,0,0,0,0,0,0,0,0,0,0,0,0,0,0],"id":22,"left_children":[1,3,5,7,9,11,13,15,17,19,21,23,-1,25,27,29,31,33,35,37,-1,-1,39,41,43,45,-1,47,49,51,53,55,57,59,-1,-1,-1,61,-1,-1,63,-1,65,-1,67,-1,-1,69,71,73,75,-1,-1,-1,-1,-1,-1,-1,-1,-1,-1,-1,-1,-1,-1,-1,-1,-1,-1,-1,-1,-1,-1,-1,-1,-1,-1],"loss_changes":[3.9520764E-1,1.1649309E0,1.9240351E0,1.6595479E0,2.9205918E0,7.008443E-1,2.0665278E0,1.0077114E0,6.9991875E-1,1.1499505E0,4.1260624E0,7.3868203E-1,0E0,2.1946812E-1,9.483478E-1,1.9916474E0,2.2573702E0,4.566397E0,1.21739626E-1,2.9311419E0,0E0,0E0,2.7287323E0,3.8862407E-1,1.1083819E0,1.3244477E-1,0E0,2.4897547E0,3.8757577E0,8.690043E-1,7.1255493E-1,3.8968291E0,5.144759E0,1.435369E0,0E0,0E0,0E0,7.70771E-1,0E0,0E0,3.3068693E-1,0E0,1.965766E-1,0E0,6.609695E-1,0E0,0E0,2.07956E0,3.5281448E0,2.5967515E0,1.365696E0,0E0,0E0,0E0,0E0,0E0,0E0,0E0,0E0,0E0,0E0,0E0,0E0,0E0,0E0,0E0,0E0,0E0,0E0,0E0,0E0,0E0,0E0,0E0,0E0,0E0,0E0],"parents":[2147483647,0,0,1,1,2,2,3,3,4,4,5,5,6,6,7,7,8,8,9,9,10,10,11,11,13,13,14,14,15,15,16,16,17,17,18,18,19,19,22,22,23,23,24,24,25,25,27,27,28,28,29,29,30,30,31,31,32,32,33,33,37,37,40,40,42,42,44,44,47,47,48,48,49,49,50,50],"right_children":[2,4,6,8,10,12,14,16,18,20,22,24,-1,26,28,30,32,34,36,38,-1,-1,40,42,44,46,-1,48,50,52,54,56,58,60,-1,-1,-1,62,-1,-1,64,-1,66,-1,68,-1,-1,70,72,74,76,-1,-1,-1,-1,-1,-1,-1,-1,-1,-1,-1,-1,-1,-1,-1,-1,-1,-1,-1,-1,-1,-1,-1,-1,-1,-1],"split_conditions":[1.1795458E-2,1.1554115E-2,1.1954071E-2,1.1431253E-2,1.3637E3,1.8811747E3,1.2108818E-2,1.09268455E-2,1.4426941E3,1.2246575E3,1.435547E3,1.4177804E3,-2.7020213E-1,1.2661201E3,1.5527404E-2,1.0862171E-2,1.2773E3,1.3739508E3,1.819474E3,9.39E2,3.863576E-1,-3.1114116E-1,1.8538223E3,7.226887E2,1.446E3,7.383738E2,1.8133494E-1,1.516592E-2,1.5849447E-2,1.0501642E-2,1.4331993E3,1.1040416E-2,1.3739508E3,8.621E2,3.198161E-1,-2.673274E-1,-6.363452E-2,2.978122E2,-1.5364116E-1,3.0262744E-1,3.6712146E3,-9.453174E-3,1.037199E3,1.8509132E-1,1.5637869E3,9.0901256E-2,-1.8505849E-2,1.4875531E-2,1.9284E3,1.0988386E3,1.6623636E3,6.853511E-4,5.706805E-2,-2.9699203E-1,-3.57864E-2,1.9816399E-1,-1.2829728E-1,4.389361E-1,4.356638E-2,4.715122E-2,-3.0361885E-1,2.1168014E-2,3.3852416E-1,-1.3323484E-1,2.4665324E-2,-2.6658952E-1,-7.9422176E-2,-1.8174438E-1,5.7222355E-2,-2.1269862E-2,1.0805072E-1,-1.8796095E-1,2.2267585E-1,7.1852263E-3,2.919589E-1,-1.5006944E-2,4.9139183E-2],"split_indices":[4,4,4,4,1,1,4,4,2,1,3,1,0,1,4,4,2,1,1,1,0,0,2,1,1,1,0,4,4,4,2,4,1,1,0,0,0,1,0,0,3,0,1,0,2,0,0,4,1,3,2,0,0,0,0,0,0,0,0,0,0,0,0,0,0,0,0,0,0,0,0,0,0,0,0,0,0],"split_type":[0,0,0,0,0,0,0,0,0,0,0,0,0,0,0,0,0,0,0,0,0,0,0,0,0,0,0,0,0,0,0,0,0,0,0,0,0,0,0,0,0,0,0,0,0,0,0,0,0,0,0,0,0,0,0,0,0,0,0,0,0,0,0,0,0,0,0,0,0,0,0,0,0,0,0,0,0],"sum_hessian":[9.198702E2,5.2600745E2,3.938627E2,5.1172272E2,1.4284746E1,1.0588114E1,3.832746E2,5.039797E2,7.743E0,6.45102E0,7.833726E0,8.953E0,1.6351137E0,7.253324E0,3.7602127E2,4.7182364E2,3.215609E1,4.8330708E0,2.909929E0,4.713311E0,1.7377083E0,2.226999E0,5.606727E0,5.160774E0,3.7922256E0,2.6206937E0,4.6326303E0,1.7198402E2,2.0403723E2,4.682262E2,3.5974202E0,1.3869897E1,1.8286192E1,3.61511E0,1.2179608E0,1.7317375E0,1.1781915E0,2.9696646E0,1.7436466E0,2.234162E0,3.372565E0,1.6299969E0,3.5307777E0,1.2201333E0,2.5720923E0,1.4044518E0,1.2162418E0,1.576328E2,1.4351232E1,1.0956941E1,1.9308029E2,4.431764E2,2.5049826E1,1.6583421E0,1.939078E0,3.6826227E0,1.0187274E1,2.7447975E0,1.5541395E1,1.1650456E0,2.4500642E0,1.0908403E0,1.8788244E0,1.712148E0,1.6604171E0,1.165735E0,2.3650427E0,1.3710434E0,1.2010489E0,1.4651357E2,1.1119228E1,1.3033173E1,1.3180592E0,5.016506E0,5.9404345E0,1.5725552E2,3.5824768E1],"tree_param":{"num_deleted":"0","num_feature":"5","num_nodes":"77","size_leaf_vector":"1"}},{"base_weights":[1.3832415E-3,1.8001555E-2,-2.176127E-2,5.5116676E-3,4.3667296E-1,-3.758333E-1,-7.200998E-3,3.8467304E-4,4.7046226E-1,3.5772246E-1,1.3537513E-1,2.4222665E-1,-6.2314606E-1,4.4787025E-1,-1.7803006E-2,1.1510618E-2,-2.8280598E-1,9.242458E-1,-1.07583135E-1,4.8093823E-1,-4.5843354E-1,-2.4094096E-1,2.2975549E-1,-1.7983014E-2,-7.5324196E-1,-6.697944E-2,8.5104054E-1,-2.9294842E-1,-8.830734E-3,6.5368344E-3,3.1338105E-1,-5.343092E-1,1.5257871E-1,3.3777213E-1,7.454081E-2,5.1012848E-2,-9.9840604E-2,-5.74179E-2,6.511605E-1,-6.5404487E-1,4.60831E-2,1.3808176E-1,-2.5087154E-1,-2.8613803E-1,-1.6659732E-1,-1.8517317E-1,3.1191346E-1,3.364901E-1,-1.2168809E-3,-2.5377983E-1,3.5605833E-3,3.5839058E-3,-7.4319534E-2,-3.0816597E-1,-3.562085E-2,2.7098247E-1,-2.8407825E-2,3.6224404E-1,9.2727E-2,-3.1137502E-1,-3.0162757E-2,6.1064724E-2,-1.4890066E-1,3.2003203E-1,-1.8050997E-1,3.8692392E-2,-1.3967821E-1,1.0217145E-1,-6.158441E-3],"categories":[],"categories_nodes":[],"categories_segments":[],"categories_sizes":[],"default_left":[0,0,0,0,0,0,0,0,0,0,0,0,0,0,0,0,0,0,0,0,0,0,0,0,0,0,0,0,0,0,0,0,0,0,0,0,0,0,0,0,0,0,0,0,0,0,0,0,0,0,0,0,0,0,0,0,0,0,0,0,0,0,0,0,0,0,0,0,0],"id":23,"left_children":[1,3,5,7,9,11,13,15,17,-1,19,21,23,25,27,29,31,33,35,37,39,41,-1,-1,43,45,47,-1,49,51,-1,53,55,-1,-1,-1,-1,-1,57,59,-1,-1,-1,-1,61,-1,63,-1,-1,65,67,-1,-1,-1,-1,-1,-1,-1,-1,-1,-1,-1,-1,-1,-1,-1,-1,-1,-1],"loss_changes":[3.5371712E-1,2.7964892E0,1.9789236E0,1.2411957E0,3.3661923E0,2.4686334E0,1.7941515E0,1.629291E0,1.589053E0,0E0,2.7248054E0,1.463033E0,7.688341E-1,1.8145148E0,3.111629E0,2.5496628E0,2.2220619E0,1.6801071E-1,2.6875815E-1,1.0634086E0,6.992698E-1,1.7995398E0,0E0,0E0,8.9270544E-1,1.1610777E0,1.1201582E0,0E0,1.0947939E0,6.8540055E-1,0E0,2.4616349E0,1.5585501E0,0E0,0E0,0E0,0E0,0E0,9.15642E-1,7.4137676E-1,0E0,0E0,0E0,0E0,5.2684164E-1,0E0,2.9973574E0,0E0,0E0,1.468078E0,2.799874E0,0E0,0E0,0E0,0E0,0E0,0E0,0E0,0E0,0E0,0E0,0E0,0E0,0E0,0E0,0E0,0E0,0E0,0E0],"parents":[2147483647,0,0,1,1,2,2,3,3,4,4,5,5,6,6,7,7,8,8,10,10,11,11,12,12,13,13,14,14,15,15,16,16,17,17,18,18,19,19,20,20,21,21,24,24,25,25,26,26,28,28,29,29,31,31,32,32,38,38,39,39,44,44,46,46,49,49,50,50],"right_children":[2,4,6,8,10,12,14,16,18,-1,20,22,24,26,28,30,32,34,36,38,40,42,-1,-1,44,46,48,-1,50,52,-1,54,56,-1,-1,-1,-1,-1,58,60,-1,-1,-1,-1,62,-1,64,-1,-1,66,68,-1,-1,-1,-1,-1,-1,-1,-1,-1,-1,-1,-1,-1,-1,-1,-1,-1,-1],"split_conditions":[1.4152477E3,1.403431E3,1.4247068E3,1.4132552E3,1.39083E3,6.2224907E-3,1.4318228E3,1.37912E3,1.3954426E3,3.5772246E-1,1.2649876E-2,5.151983E-3,1.409587E3,1.4273E3,1.3937584E3,1.39716E3,1.3902905E3,1.4277236E3,1.43038E3,4.4707553E-3,1.5058877E-2,2.0615526E-3,2.2975549E-1,-1.7983014E-2,1.4216527E3,1.4155465E3,1.4530607E3,-2.9294842E-1,1.435547E3,1.37038E3,3.1338105E-1,9.837609E-3,1.37464E3,3.3777213E-1,7.454081E-2,5.1012848E-2,-9.9840604E-2,-5.74179E-2,1.4130304E3,1.409587E3,4.60831E-2,1.3808176E-1,-2.5087154E-1,-2.8613803E-1,1.4426941E3,-1.8517317E-1,1.4261006E3,3.364901E-1,-1.2168809E-3,1.4209249E3,1.4632593E3,3.5839058E-3,-7.4319534E-2,-3.0816597E-1,-3.562085E-2,2.7098247E-1,-2.8407825E-2,3.6224404E-1,9.2727E-2,-3.1137502E-1,-3.0162757E-2,6.1064724E-2,-1.4890066E-1,3.2003203E-1,-1.8050997E-1,3.8692392E-2,-1.3967821E-1,1.0217145E-1,-6.158441E-3],"split_indices":[1,1,1,2,3,4,1,2,1,0,4,4,2,1,3,3,1,2,3,4,4,4,0,0,1,2,3,0,3,2,0,4,3,0,0,0,0,0,3,2,0,0,0,0,2,0,3,0,0,3,2,0,0,0,0,0,0,0,0,0,0,0,0,0,0,0,0,0,0],"split_type":[0,0,0,0,0,0,0,0,0,0,0,0,0,0,0,0,0,0,0,0,0,0,0,0,0,0,0,0,0,0,0,0,0,0,0,0,0,0,0,0,0,0,0,0,0,0,0,0,0,0,0,0,0,0,0,0,0,0,0,0,0,0,0,0,0,0,0,0,0],"sum_hessian":[9.176285E2,5.342479E2,3.8338055E2,5.197556E2,1.4492286E1,1.4162764E1,3.6921777E2,5.150767E2,4.6789064E0,3.2878666E0,1.1204419E1,4.053419E0,1.01093445E1,7.4669986E0,3.617508E2,4.9652856E2,1.8548174E1,2.2856693E0,2.3932369E0,7.202848E0,4.0015717E0,2.3889284E0,1.6644907E0,2.1711047E0,7.93824E0,3.645523E0,3.8214755E0,2.3543339E0,3.5939645E2,4.95151E2,1.377557E0,1.1612762E1,6.935411E0,1.2473487E0,1.0383208E0,1.1816332E0,1.2116036E0,1.4300748E0,5.772773E0,2.980401E0,1.0211707E0,1.2010295E0,1.1878989E0,5.44944E0,2.4888003E0,1.230052E0,2.415471E0,2.6660936E0,1.1553819E0,1.636745E1,3.43029E2,4.8576935E2,9.381637E0,4.6388335E0,6.9739294E0,1.0610821E0,5.8743286E0,1.2347486E0,4.5380244E0,1.2430946E0,1.7373064E0,1.3528539E0,1.1359464E0,1.2308537E0,1.1846174E0,5.9702063E0,1.0397244E1,2.2006796E1,3.210222E2],"tree_param":{"num_deleted":"0","num_feature":"5","num_nodes":"69","size_leaf_vector":"1"}},{"base_weights":[1.7335537E-3,-2.9218438E-4,1.6080147E-1,1.7906532E-3,-4.7056556E-1,6.084595E-1,-8.385578E-2,8.919275E-5,2.639099E-1,-2.0938547E-1,-4.2686816E-2,5.887962E-2,2.4339561E-1,6.220153E-2,-1.1012845E-1,2.1142336E-3,-3.2012105E-1,-6.669433E-2,4.284419E-1,-9.386307E-2,2.693454E-1,2.1766602E-4,1.6516899E-1,-6.524868E-1,1.3370153E-1,2.695843E-1,-1.0788339E-2,1.2521234E-1,2.176661E-3,9.0573984E-4,-4.4889066E-2,-3.279593E-2,-2.566965E-1],"categories":[],"categories_nodes":[],"categories_segments":[],"categories_sizes":[],"default_left":[0,0,0,0,0,0,0,0,0,0,0,0,0,0,0,0,0,0,0,0,0,0,0,0,0,0,0,0,0,0,0,0,0],"id":24,"left_children":[1,3,5,7,9,11,13,15,17,-1,-1,-1,-1,19,-1,21,23,-1,25,-1,27,29,-1,31,-1,-1,-1,-1,-1,-1,-1,-1,-1],"loss_changes":[2.9552212E-1,8.8870054E-1,1.3141078E0,4.0289608E-1,1.9932228E-1,1.9167817E-1,3.6768642E-1,5.833705E-1,5.613417E-1,0E0,0E0,0E0,0E0,5.780238E-1,0E0,9.2974746E-1,1.7298052E0,0E0,1.0574169E0,0E0,1.7665508E-1,3.748559E-1,0E0,3.8632786E-1,0E0,0E0,0E0,0E0,0E0,0E0,0E0,0E0,0E0],"parents":[2147483647,0,0,1,1,2,2,3,3,4,4,5,5,6,6,7,7,8,8,13,13,15,15,16,16,18,18,20,20,21,21,23,23],"right_children":[2,4,6,8,10,12,14,16,18,-1,-1,-1,-1,20,-1,22,24,-1,26,-1,28,30,-1,32,-1,-1,-1,-1,-1,-1,-1,-1,-1],"split_conditions":[4.0396396E3,3.9935293E3,4.0914592E3,3.9597148E3,8.756425E-3,1.0983352E-2,1.1628382E-2,3.8715635E3,7.11009E-3,-2.0938547E-1,-4.2686816E-2,5.887962E-2,2.4339561E-1,6.919264E-3,-1.1012845E-1,3.868516E3,1.8903637E-2,-6.669433E-2,9.1104945E-3,-9.386307E-2,8.639338E-3,3.621825E3,1.6516899E-1,3.868516E3,1.3370153E-1,2.695843E-1,-1.0788339E-2,1.2521234E-1,2.176661E-3,9.0573984E-4,-4.4889066E-2,-3.279593E-2,-2.566965E-1],"split_indices":[2,2,2,3,4,4,4,1,4,0,0,0,0,4,0,3,4,0,4,0,4,1,0,3,0,0,0,0,0,0,0,0,0],"split_type":[0,0,0,0,0,0,0,0,0,0,0,0,0,0,0,0,0,0,0,0,0,0,0,0,0,0,0,0,0,0,0,0,0],"sum_hessian":[9.159697E2,9.0543713E2,1.0532625E1,9.0243646E2,3.0006926E0,3.1966376E0,7.3359876E0,8.976102E2,4.8261995E0,1.1074722E0,1.8932203E0,1.7032542E0,1.4933834E0,5.3549848E0,1.9810023E0,8.929565E2,4.6537466E0,1.1314249E0,3.6947749E0,1.7236016E0,3.6313834E0,8.9087616E2,2.0803027E0,3.348434E0,1.3053125E0,1.3713751E0,2.3233998E0,1.9420325E0,1.6893508E0,8.754884E2,1.5387756E1,1.3302102E0,2.0182238E0],"tree_param":{"num_deleted":"0","num_feature":"5","num_nodes":"33","size_leaf_vector":"1"}},{"base_weights":[1.3435476E-3,-8.508471E-3,3.0216033E-2,2.2785447E-3,-3.1935984E-1,4.1939807E-1,-5.932117E-3,-4.8028156E-3,2.781613E-1,-8.650275E-1,-1.3200872E-1,8.184917E-1,-3.9640047E-2,-6.376421E-1,4.289287E-3,1.3713793E-2,-1.7657177E-1,4.620021E-1,-3.3735833E-1,-7.4606955E-2,-3.387791E-1,5.6466464E-2,-7.697423E-1,1.0920554E0,3.761279E-1,-5.0885487E-1,4.8741087E-1,6.066678E-2,-3.5443503E-1,4.4888994E-1,-7.921084E-3,9.1198655E-3,2.2483875E-1,-6.269415E-1,-1.11643046E-1,7.209733E-1,-2.2214846E-1,-2.1822968E-1,2.7400518E-2,-2.7650005E-1,2.0757745E-1,-3.2437962E-1,5.226245E-3,4.202411E-1,6.2135722E-2,-2.0288594E-1,3.7698457E-1,-2.9399163E-1,-8.311093E-2,2.4512947E-1,-3.594827E-3,-8.865713E-2,7.138225E-1,-4.2195657E-1,1.3164524E-2,4.6515837E-3,-1.5331315E-1,4.6556182E-2,-2.3467787E-1,7.0901443E-3,-9.260203E-2,3.8097018E-1,1.00837E-1,-1.3207032E-1,5.6795422E-2,1.9196235E-1,-4.5523163E-2,2.3351389E-1,-2.0322727E-1,